sample,DGCCA_1,DGCCA_2,DGCCA_3,DGCCA_4,DGCCA_5,DGCCA_6,DGCCA_7,DGCCA_8,DGCCA_9,DGCCA_10,DGCCA_11,DGCCA_12,DGCCA_13,DGCCA_14,DGCCA_15,DGCCA_16,DGCCA_17,DGCCA_18,DGCCA_19,DGCCA_20,DGCCA_21,DGCCA_22,DGCCA_23,DGCCA_24,DGCCA_25,DGCCA_26,DGCCA_27,DGCCA_28,DGCCA_29,DGCCA_30,DGCCA_31,DGCCA_32,DGCCA_33,DGCCA_34,DGCCA_35,DGCCA_36,DGCCA_37,DGCCA_38,DGCCA_39,DGCCA_40,DGCCA_41,DGCCA_42,DGCCA_43,DGCCA_44,DGCCA_45,DGCCA_46,DGCCA_47,DGCCA_48,DGCCA_49,DGCCA_50,DGCCA_51,DGCCA_52,DGCCA_53,DGCCA_54,DGCCA_55,DGCCA_56,DGCCA_57,DGCCA_58,DGCCA_59,DGCCA_60,DGCCA_61,DGCCA_62,DGCCA_63,DGCCA_64,DGCCA_65,DGCCA_66,DGCCA_67,DGCCA_68,DGCCA_69,DGCCA_70,DGCCA_71,DGCCA_72,DGCCA_73,DGCCA_74,DGCCA_75,DGCCA_76,DGCCA_77,DGCCA_78,DGCCA_79,DGCCA_80,DGCCA_81,DGCCA_82,DGCCA_83,DGCCA_84,DGCCA_85,DGCCA_86,DGCCA_87,DGCCA_88,DGCCA_89,DGCCA_90,DGCCA_91,DGCCA_92,DGCCA_93,DGCCA_94,DGCCA_95,DGCCA_96,DGCCA_97,DGCCA_98,DGCCA_99,DGCCA_100
TCGA-3C-AAAU-01,-0.0041261776,-0.03593134,-0.032695718,-0.02567843,-0.021700125,0.018754035,-0.027951008,0.012278657,0.033695053,-0.040867515,0.018796774,-0.0025141055,-0.02382755,-0.049597993,0.019127112,0.02654196,-0.003888662,-0.0037348222,-0.07552349,-0.062102284,0.025296625,-0.004095418,0.023736976,-0.0005262685,0.010660697,0.030766232,-0.047604937,-0.043019813,-0.0030126395,-0.030656915,0.024132509,-0.023945114,0.060501438,-0.024195535,-0.028298516,0.047083348,0.025331143,-0.059654284,0.0087919505,0.04798492,0.017590862,0.024325848,0.027523052,0.023343278,-0.06568864,-0.0020837535,0.012109548,-0.028899405,0.005312714,-0.003568176,0.02948331,-0.045158427,-0.0013090068,-0.009893907,-0.040096454,0.03016599,-0.041390095,0.050595034,-0.013326269,0.0075423713,0.02914673,0.01339337,-0.009036608,0.010839541,0.038376074,0.007907901,-0.041019324,-0.023305027,0.026900785,0.0015591665,-0.043187443,-0.012916632,0.040690236,-0.034778506,0.0006705972,0.0363622,0.0706792,0.017475808,0.0061947983,-0.018125359,0.008815764,-0.018742587,-0.0288585,-0.05262818,0.019525195,-0.017285423,0.021223078,0.025707036,0.03835491,0.010601894,-0.043568686,0.022436984,-0.047810387,0.03396926,-0.02390517,-0.012130371,0.020938313,0.0023924564,-0.010160123,-0.0020560583
TCGA-3C-AALI-01,-0.008898172,0.025295932,0.029913735,0.0440201,0.007204805,-0.0028523703,0.038143203,-0.016290246,-0.009043586,0.023113906,-0.037791375,-0.036351956,0.042420954,0.0187137,-0.037287455,-0.012684425,-0.025200939,-0.014967966,-0.0011651313,0.059064373,-0.028493423,-0.008641937,-0.040850744,-0.0061811684,-0.04397142,-0.01338965,0.020077778,0.030722125,-0.0013292219,0.040181413,0.011347778,0.020580754,-0.034532033,0.035276484,0.06016866,0.01470943,0.04082837,0.019268163,-0.047193296,-0.021345569,-0.01187261,-0.030425357,-0.047547225,-0.029671129,0.04152387,-0.0031091901,0.005921135,0.02893157,-0.008625211,0.03332053,0.00904907,0.048988942,-0.020550666,0.041093405,0.037722602,0.001021554,0.011024766,-0.009436602,-0.026995081,-0.017306434,0.034360006,0.004346722,-0.0027409464,-0.014076312,-0.031762227,-0.0030539304,0.052420177,0.06721039,-0.035306446,-0.024721773,0.06906946,0.017873917,-0.015910184,0.02556462,-0.05116143,-0.0006266786,-0.03716792,-0.017593088,-0.014037839,0.013595523,-0.03558266,0.054442454,0.038197678,0.03995966,-0.02430889,-0.03453302,-0.029772855,-0.012821607,-0.009730341,0.0010251261,0.048611276,-0.046595607,0.028668597,-0.026599161,0.028161103,0.052059975,-0.0008196151,-0.029595844,0.002733805,0.025198942
TCGA-3C-AALJ-01,0.020418968,0.039208505,0.016396146,0.028214995,0.0336224,-0.009417488,0.028166384,-0.007987734,-0.026178531,0.033290535,-0.019407254,-0.019786883,0.025634212,-0.0022621024,-0.039212257,-0.03355908,-0.011317839,-0.032267243,0.022207515,0.04026555,-0.019320687,0.0043073893,-0.026905157,-0.030151833,-0.01577329,-0.0062299846,0.017040279,0.007959046,-0.02623194,0.027979007,-0.02063468,0.014252964,0.0012763974,0.029191203,0.030155241,0.010966049,-0.0106381085,0.044554196,-0.0050124386,-0.01602143,0.0049041472,-0.005767608,0.0062780543,0.015909499,0.018063616,0.0065058433,0.044257775,-0.018580418,-0.025136292,-0.0028559566,0.0040614083,0.030984923,0.005588567,0.008181774,0.013900662,0.018107263,0.01028803,-0.01681049,0.024238586,-0.0413133,-0.007225084,0.007150486,-0.032606274,-0.0050893966,-0.020608086,-0.016989226,0.001636764,0.021683503,0.008174597,-0.0007345169,0.018806906,0.005628434,-0.020216806,0.039772153,0.0078084464,-0.02880876,-0.014816612,-0.018838547,-0.0057168044,0.03754382,-0.01352781,0.024549749,-0.0073538483,0.01495656,-0.0389005,0.010651328,-0.00879693,-0.042716295,0.0502154,-0.012138825,0.027299395,-0.021551333,0.013496373,-0.0008682981,0.014952693,0.02074426,0.032509785,0.0335327,0.015098378,0.018189076
TCGA-3C-AALK-01,-0.037578598,0.016135234,0.016024355,0.008897411,0.016984954,0.05372425,0.007899825,-0.07941514,0.027272388,0.009118715,-0.07611433,-0.03548363,0.0063895793,-0.008971443,-0.008116423,-0.0129488725,-0.006610508,0.0010111388,-0.0113958735,0.008628206,0.014160695,-0.06506927,0.058018483,-0.09027861,0.003148599,-0.05243861,-0.0015943721,-0.010192592,-0.03565035,0.020852506,0.0068510994,-0.009319007,0.008203096,-0.0021903077,0.009510371,-0.0005047228,-0.05319403,-0.0058282083,0.06387003,0.025219455,0.00434516,0.03919952,-0.0030758139,-0.012966671,-0.013291227,-0.05292108,0.0041686725,0.016105946,0.06882566,0.0072350185,-0.053342573,0.010233201,-0.049707793,-0.01184546,-0.01390167,-0.02028515,0.011656779,-0.042936653,-0.026733596,-0.04482292,-0.017472662,-0.05382833,-0.03395581,-0.033205282,-0.04654008,0.0188221,0.0023312652,0.016233597,-0.023377517,-0.0124674225,0.011447616,-0.012598033,-0.03566678,0.010218584,-0.0031592455,-0.0046315547,-0.01396473,0.004266198,-0.016741734,-0.023916882,0.0053344686,-0.0012626289,-0.0051915105,-0.00040433742,-0.015982397,0.021587996,-0.029997237,0.0021257335,-0.05430337,-0.029098902,-0.024716973,-0.009245442,-0.0076404447,-0.0514725,-0.0072722742,-0.009948854,-0.009587549,-0.030570043,0.011992316,0.014603076
TCGA-4H-AAAK-01,0.019179786,0.03692377,0.059026808,0.063695796,0.059048794,-0.018865975,0.052302353,-0.0064201336,-0.069069974,0.06692973,-0.019455034,-0.019925863,0.039916042,0.049431026,-0.035766892,-0.07792511,-0.006104124,-0.00016782363,0.058148295,0.043238193,-0.058931578,0.015583598,-0.059690647,-0.011602659,-0.033680078,-0.06857071,0.046587612,0.04982655,0.011310444,0.061975613,0.0034615514,0.037642453,-0.03888454,0.044063576,0.05920302,0.015518842,-0.0004777098,0.043759868,-0.0135835055,-0.0020962767,0.050423026,-0.011725912,-0.030654822,0.010751292,0.045904465,0.002724784,0.060545385,0.056714274,0.0030007288,0.0415587,0.010549853,0.03232723,0.026277486,0.040152937,0.036312714,0.03997204,0.044548705,-0.049342193,0.021966562,0.043648247,0.01454382,0.040565617,0.0006480841,-0.007950612,0.032844633,-0.032679603,0.01641046,0.0325862,-0.011062826,0.022377474,0.040328946,0.013366617,-0.001443461,0.0070028193,-0.005354712,0.010765278,-0.034247458,-0.013478334,0.0017481556,0.027392205,-0.03292922,0.031582203,0.040065963,0.043296482,-0.00610629,0.020328708,0.022563143,-0.024286518,-0.027592652,-0.013029642,0.03843837,-0.035251256,0.03217774,-0.054524817,0.0039433017,0.029439753,0.022895768,0.013860293,0.007753465,0.0013387213
TCGA-5L-AAT0-01,0.0095097115,-0.050922677,-0.040188383,-0.0426559,-0.030105032,0.027654858,-0.053998996,0.015387414,0.0537009,-0.072952956,0.04096802,0.026255056,-0.039910547,-0.06042581,0.02960522,0.09517423,0.023922851,0.026713133,-0.011457917,-0.06404062,0.018043531,-0.045875467,0.069850184,-0.0034908,0.032031484,0.013160572,-0.044836696,-0.045560334,0.020574953,-0.06297651,0.002588992,-0.014364576,0.025776438,-0.040081806,-0.07832983,-0.007101493,0.01915424,-0.05529532,0.031785183,0.036686763,-0.05721446,0.017329253,0.0620145,0.0085892705,-0.08594498,-0.006466452,-0.05609893,-0.009254747,-0.013096917,-0.058943406,0.0016441387,-0.03389396,-0.007931803,-0.048818037,-0.046353478,-0.031496655,-0.006519763,0.026802022,-0.013145801,-0.050555248,-0.0017775723,-0.03103221,0.0051124487,-0.013788476,-0.03602427,0.027681306,-0.041464962,-0.016057968,0.018371899,0.010200953,-0.044537265,-0.023181114,-0.005549926,-0.0054364805,-0.08559552,0.028208539,0.05697122,0.037952065,0.013823351,-0.041929834,0.02927556,-0.009882,-0.032557327,-0.05184868,0.0018835859,0.002481523,0.0008149957,0.012590186,0.0004624594,-0.04804194,-0.0362285,0.012541497,-0.02116545,0.017361486,-0.016193733,-0.0055917623,-0.015125089,0.01831202,-0.023036487,-0.06083764
TCGA-5L-AAT1-01,0.030665684,-0.04181907,-0.044501204,-0.05147074,-0.023257688,-0.026669677,-0.033733245,0.044739418,-0.0004506074,-0.04280573,0.038703732,0.04588719,-0.011779678,-0.028037667,0.025573656,0.035911936,-0.028157875,-0.029300146,-0.008855527,-0.023548825,0.013072492,-0.0016683927,-0.00045890882,0.031743124,0.025475685,0.023883179,-0.027641064,-0.005707855,0.002110906,-0.043998178,0.0037381705,-0.01688941,0.015244346,-0.032240525,-0.025808008,0.0025184336,0.016527282,-0.0011333306,0.03597371,0.017976962,-0.009196779,-0.03376617,0.060965568,-0.0221012,-0.018338365,0.051000476,-0.029891782,-0.00086660683,-0.04357258,-0.007849575,-0.023824757,-0.013116758,-0.011309577,-0.024886243,-0.0033191303,-0.031575013,-0.00926461,0.024142956,-0.029905174,-0.013385899,-0.004938173,-0.008291954,0.025407707,-0.033025682,-0.0137862265,-0.021732254,-0.027675616,-0.006735302,0.054968588,0.01973459,0.018428043,-0.01989321,0.024596928,0.0044006836,-0.021848885,0.014236088,0.010913637,0.006443943,0.034819566,-0.0101044495,0.046150647,-0.008509148,0.0057076123,-0.004404879,0.05035656,-0.013695118,-0.0089367265,0.004822,0.02746112,-0.00641132,-0.022011291,0.010477819,0.01006436,0.046604015,-0.003716412,-0.001959242,-0.027423734,-0.009419454,-0.036212448,-0.0146111585
TCGA-5T-A9QA-01,-0.03237518,0.00057176827,-0.016848754,0.025608134,-0.03243376,-0.010502575,-0.025355518,0.015216252,0.03134414,0.0010716263,-0.03099116,-0.045449987,-0.027865104,0.00068289833,0.004432641,0.020698838,-0.03348212,0.034074243,0.0040941425,-0.038923725,-0.014235311,-0.025314547,0.0019804672,-0.0027524382,0.027629627,-0.02000487,0.014145175,-0.021232365,0.0134142805,-0.0045837397,-0.013192859,-0.0031958036,-0.0036946032,0.002618073,-0.011602309,0.010043521,-0.0045247506,0.0030942708,0.0056891516,0.023235645,-0.00033274828,0.005915074,0.006550203,0.036119714,-0.021278542,-0.0051803514,0.012546074,-0.031432398,0.028993586,0.00034395233,0.0015057558,-0.012366026,0.020270463,0.016915437,-0.0072400207,-0.005759347,0.0009924956,-0.01044141,-0.049195476,0.029152256,0.0036186934,-0.029490974,-0.013114864,0.023763515,-0.005648533,0.014572396,-0.013944463,-0.020323327,0.008599827,-0.005578183,-0.006987165,-0.013574931,-0.010922536,-0.008132007,-0.011415947,-0.008755752,-0.022710726,0.0029620212,-0.011451532,-0.017028963,-0.03740787,-0.060147535,0.015079936,-0.013742382,0.011426202,0.011332738,0.004537053,-0.010045613,-0.015167177,-0.021019634,-0.005152489,0.0051565785,-0.011862537,0.03108878,-0.008908037,0.012461334,-0.010397848,-0.011118255,-0.033248678,0.005486369
TCGA-A1-A0SB-01,-0.05337564,-0.012137768,0.005820323,-0.0007604738,0.0059251115,0.008471053,-0.003441086,-0.048590265,0.063431405,-0.00079448684,0.0011592589,-0.068023,0.016805954,-0.016991047,0.0019070087,0.045484062,-0.0573308,0.069662936,-0.0036152713,0.0074572954,0.019952975,-0.028620584,0.009213861,-0.015454067,0.05047244,-0.01577334,-0.0024379157,0.009166993,0.008173129,-0.0050038686,-0.03740969,-0.024648245,-0.0149298515,-0.01621627,-0.0065076877,-0.028101856,-0.047470365,-0.015709437,0.02183368,0.0384576,-0.00725261,0.02007559,-0.055945665,0.06658988,-0.03432731,-0.04825636,0.045859512,0.026136518,0.011478371,-0.0149342045,-0.035647895,-0.040984396,-0.019477688,0.022398042,-0.0070790043,0.011418639,-0.014581839,-0.012677466,-0.03435961,-0.0118526835,-0.018418333,0.028284889,0.009455653,-0.024504922,0.011318074,0.03961175,-0.0098183835,-0.025306284,0.045773063,-0.015649911,-0.03064334,-0.0406764,-0.08673207,-0.0070156846,-0.04466424,-0.011888057,-0.006607485,-0.037413765,-0.04153053,-0.01852266,-0.0802693,0.0042212186,-0.025659654,-0.015809296,-0.0014003587,-0.038000766,-0.003933981,-0.01689636,-0.009609697,-0.030477706,-0.0009103846,-0.024520583,-0.017502379,0.027310796,-0.029114107,0.013002952,0.010648691,-0.024232235,-0.032617435,-0.0045322217
TCGA-A1-A0SD-01,0.01643398,-0.00059850863,0.023734728,0.03850174,0.037445083,-0.0360463,0.02942678,0.0374745,-0.04633659,0.018997433,-0.03518938,0.009875249,0.011269756,0.060257446,-0.049966574,-0.09727722,0.033570424,0.08722829,0.020392375,0.024523474,0.0059311,0.080157466,-0.03633214,0.026763584,-0.0006326074,-0.020772718,0.01935615,0.0063542156,0.01818901,0.0064430856,-0.009770909,0.04181523,-0.016227514,0.010469316,0.0134856645,0.0055731162,0.044186763,-0.005783476,-0.08275405,-0.0068399766,0.05201649,-0.0148395905,0.0016539381,-0.019310571,0.030345079,-0.023609662,0.020300165,-0.0015049875,0.0020729322,0.005184585,0.030997414,0.023834776,0.025041098,-0.015376506,0.02298934,0.015669774,0.01581667,-0.018460691,0.07128482,0.03140705,-0.006625169,0.032060966,0.035301812,0.062553175,0.049687043,0.06781507,0.0030462362,-0.008626636,-0.04999303,0.024798762,0.012925912,0.06656679,0.00025694538,0.020880036,0.025732458,0.05705884,-0.03661376,0.013997955,0.04770975,-0.0075205825,-0.022257855,-0.0022987556,0.020695448,-0.0018620093,0.0077176928,0.0066713914,0.026818287,-0.0088917725,0.03546048,0.040205527,-0.0010055648,0.031346515,0.004067591,-0.03780539,0.007006631,-0.016388347,-0.031487133,-0.04222454,0.090730876,0.027649965
TCGA-A1-A0SE-01,0.04874783,-0.059322353,-0.025847204,-0.05980254,-0.021029627,0.018910408,-0.032514304,0.003362082,-0.0099308975,-0.03702322,-0.010134403,0.019522713,-0.031922586,-0.030047089,0.0019515278,0.047279295,0.003457686,0.06266942,-0.02864271,-0.031400412,0.004016353,0.06888507,0.027491415,0.014116105,0.087359026,-0.045397166,-0.023988362,-0.030418593,0.047611054,-0.012598805,0.024794312,-0.022799954,0.059280876,-0.021834929,-0.023666862,-0.038362116,0.05788522,0.008727747,-0.021103982,0.02604156,-0.06750458,-0.04265158,0.031511452,-0.067205995,0.004531124,-0.017779259,-0.05239058,0.041357048,-0.009509746,0.021004189,-0.020610593,-0.015727429,0.019093508,0.003653524,0.010182843,-0.019199258,-0.004124159,-0.015955647,0.021690149,-0.025673565,0.00068429206,-0.020134998,0.040998977,0.0049366523,0.014349963,0.045014076,0.026130755,-0.0135457525,0.006530448,0.016185973,-0.025142793,0.0073530637,-0.019987054,-0.03298297,-0.04398409,0.023422204,-0.004738781,0.010700466,0.011156507,-0.025533896,0.0007426776,0.020780833,0.013893498,0.030954644,-0.0028221142,0.012928964,-0.008004166,-0.004050915,0.07410834,-0.005974259,0.015249361,0.011934731,0.036295105,-0.006947194,0.020749388,-0.006293374,-0.057154194,-0.03296224,0.0058913315,-0.009028409
TCGA-A1-A0SF-01,0.05093486,-0.05277531,-0.047176328,-0.054443814,-0.038710702,-0.0513907,-0.024009496,0.036684282,-0.048180636,-0.04288814,0.019093892,0.060326464,-0.04306289,-0.032017622,-0.018864768,0.057648767,-0.03762565,-0.0014739251,-0.025353916,-0.0076747695,0.008712849,0.052677788,-0.017184008,0.067364916,0.05710624,-0.033288278,-0.020349553,0.0060664895,0.090401486,-0.0011993598,0.04348012,-0.014062097,0.030970773,-0.019739771,0.0149390735,0.018177714,0.04280465,0.0053490046,-0.08512317,0.04631497,0.038284134,-0.040820837,0.030423373,0.008678466,0.007119407,0.027523167,-0.025439296,-0.019158471,-0.072179034,0.012415376,0.05338176,0.023321385,0.00077678263,0.0035896273,0.0101992395,0.036833726,0.0034303726,0.020199765,0.02063301,0.01792191,-0.004354882,0.019707164,0.055977765,0.044423837,0.029166969,-0.011838734,0.015027308,0.015686452,0.004739929,-0.011796765,0.025099676,0.006709827,0.036720663,0.024782425,-0.04295344,-0.0047872565,0.085807115,-0.05821592,0.01769889,0.0051145125,-0.023611119,0.0017137565,0.019265074,0.011733277,0.04150632,0.0024586895,0.042712502,-0.021723913,0.08423331,-0.01373894,0.017635345,-0.003725273,0.012324581,0.03594061,0.0022797976,0.015430216,-0.028267717,0.0022115305,-0.016384002,-0.019688068
TCGA-A1-A0SG-01,0.008983429,0.004650904,-0.004781477,-0.003829409,0.017213983,-0.04156129,-0.006685619,0.01194537,-0.062551074,0.016459929,0.039969422,0.0264189,0.011474498,0.020785542,-0.017918672,-0.0005228785,-0.0024653,-0.04627539,0.036026806,0.0196127,-0.00086634606,0.0074858703,-0.06525931,0.017679453,-0.011002613,-0.0290954,0.0328225,0.016710024,-0.013388136,0.02376676,0.014790801,0.022772657,-0.011416943,0.026406419,0.004781358,0.06896369,-0.0020907177,0.014084518,-0.033059463,-0.017323293,0.0053157676,-0.012997611,0.012098702,0.030578043,-0.0048916545,0.030918509,0.02974047,-0.007304956,-0.0038576997,0.012649661,0.036148805,-0.013044098,0.042380627,0.012563135,0.024618346,0.008369965,0.029637994,-0.010281638,0.040106766,0.0047048787,0.022864224,0.0315724,-0.0037777536,0.0096060475,0.072761625,-0.027889997,0.008397725,0.012698576,0.024706371,-0.003646274,0.0094469,0.013915489,0.011981396,-0.017556466,0.027850924,-0.011937745,0.01885671,0.008434214,-0.001794321,0.007859771,-0.01605891,-0.017232694,-0.021739636,0.015638094,-0.021080118,0.0068183485,0.061053853,0.015091906,-0.0063430155,0.015736017,-0.01554597,0.015655372,-0.018361876,0.006200964,0.017275557,-0.0033465968,-0.0055871513,0.028459383,0.002540134,-0.009329638
TCGA-A1-A0SH-01,-0.090799384,0.008280238,0.01725713,0.046462074,0.05051021,-0.03572078,0.08543878,-0.030861903,-0.04595516,0.05428636,-0.009031896,-0.050049864,0.07484574,0.022169333,-0.0075553562,-0.15352088,-0.007313418,0.02740582,0.007002058,0.024491731,0.005579878,-0.035116285,-0.0375052,-0.0270907,-0.06258644,-0.04571963,0.010519022,-0.019223258,-0.03752311,0.0055477563,-0.0057679927,0.024569588,-0.04304155,-0.009400662,0.040440526,0.05025527,-0.0473804,-0.010098272,-0.021175362,-0.03612852,0.045058094,0.015118025,-0.038718585,0.024411285,-0.012433533,0.03912418,0.044522747,-0.0044864733,0.011220557,-0.013735976,-0.033155806,-0.0044678794,0.06284236,-0.034183107,0.009426938,-0.036849465,-0.008205176,0.03848651,0.078330345,0.045039825,0.02011851,0.055557907,0.006071422,0.00038086157,0.034963585,-0.025265042,-0.029515106,-0.053393207,0.02725758,0.0452138,-0.0021310737,-0.0076619396,0.033739243,0.00027206744,0.110554904,0.00091777183,0.0424693,-0.025202725,0.026032643,-0.03960541,-0.018526874,-0.014880436,-0.022423163,-0.02360354,-0.03508484,-0.02230978,0.014726767,0.045434974,-0.006547249,0.02472135,-0.03972976,0.013960063,-0.019750262,0.022789821,-0.04503367,-0.03299499,0.0046190605,0.013867245,0.020797385,0.019851794
TCGA-A1-A0SI-01,-0.04756566,0.052779064,0.08473734,0.099802524,0.059498668,0.0055163456,0.06712041,-0.05326891,-0.0012088626,0.07263635,-0.028995851,-0.08628056,0.07242671,0.07881187,0.013428571,-0.21029174,-0.027218385,-0.038776025,0.018055689,0.020708479,-0.010698805,0.00029589143,-0.048905578,-0.0025704326,-0.051049113,0.003095623,0.042838138,0.0191245,-0.07214162,0.0014727918,0.029274642,-0.0014265552,-0.08024085,0.005552493,-0.003146178,0.053843714,-0.034068715,-0.00024814904,0.0009061126,-0.015771331,0.036432024,0.045574583,-0.078511894,0.07634144,0.0022091595,0.0029751374,0.1262771,-0.021929905,0.072250836,-0.04243022,0.016391885,-0.010202521,-0.022541203,-0.032685783,-0.003666224,0.08595341,-0.043594744,0.037497737,0.008835428,0.050930668,-0.021788912,0.023077384,-0.010217175,-0.07068157,-0.006828811,0.060086012,-0.05179374,-0.017194143,-0.034773413,-0.01094738,-0.022869237,0.0019069258,0.0823693,-0.03720003,0.07399029,-0.041726798,-0.04113736,0.075924315,0.009777369,-0.055861734,-0.01209478,-0.050995003,-0.043761294,-0.04471092,0.0029917713,0.003299078,0.02838148,0.041868187,-0.026538882,-0.017022947,-0.033233132,0.023572683,-0.03534582,0.027681086,-0.06404281,-0.03553727,0.052846603,0.04270229,-0.06497711,-0.005139016
TCGA-A1-A0SJ-01,0.030418389,-0.017277077,-0.042701412,0.005009992,-0.012530084,0.048684508,-0.029977163,0.07741271,0.03500472,-0.052342527,0.037506998,0.13420363,-0.02875887,-0.03742995,-0.029374968,0.13596007,-0.01461044,-0.04462952,-0.023567915,0.024239209,-0.087383464,0.0018864048,0.0008389666,0.09999234,-0.0039439853,0.01790608,0.016912159,0.007202126,0.018226352,0.014003619,0.053052265,-0.017117659,-0.034194976,0.0077446555,0.029649228,-0.0017942539,0.00839571,0.0070121926,0.0020458377,-0.039397992,-0.05260534,-0.0105522545,0.076850146,-0.010938962,-0.0099437265,-0.0057531847,-0.069359876,-0.01118947,-0.012153797,0.038685672,0.016094262,0.04132259,0.022253174,0.011655955,0.043818697,0.00094294414,-0.0077562407,-0.033930592,-0.039258882,-0.01703509,-0.06475981,-0.066109575,0.019410327,-0.056232706,-0.018849805,-0.018706791,0.022894885,0.048933532,0.0010769926,-0.026879273,0.048943426,-0.024506673,-0.028714847,0.015744146,-0.014503389,-0.060530774,-0.03091075,0.060774982,0.008133857,0.04748255,0.008987576,0.015583942,0.058051772,0.05333877,-0.008360676,0.020750213,0.011227999,-0.027490443,0.0016023484,-0.013246462,0.038004648,0.040149562,0.04643559,0.02537731,0.04354403,0.054174647,0.005678861,0.030862281,0.002872589,-0.04492613
TCGA-A1-A0SK-01,0.077052474,0.001280007,-0.019072643,-0.0005452703,0.020371992,-0.012306645,0.015686253,0.02657477,0.07340509,0.010266186,-0.027501833,-0.030283313,-0.0063430206,-0.018646782,0.010733923,-0.0045973817,0.03623593,-0.058630522,-0.009524847,0.014052109,0.00027087796,-0.08730112,0.033316243,0.019027207,-0.04861708,0.03591482,-0.0019314326,0.007944746,-0.06276557,-0.0038276967,-0.044350952,-0.0028065993,-0.0065248515,-0.013240091,0.005909295,0.0019191328,0.032429207,0.012449891,0.063647665,0.00039773434,-0.020335913,0.040842906,0.019122383,-0.008929822,-0.0031812536,0.012123454,-0.032041036,0.01546208,-0.002854643,-0.017141525,-0.011073458,-0.026951712,-0.062194463,-0.0036964363,-0.008098507,-0.052060127,0.003531503,-0.054957185,-0.058556665,0.00073293224,-0.010579708,-0.022928674,-0.06627119,-0.04223896,-0.049971104,-0.045156,0.018851742,0.004938489,-0.056997225,0.015545096,0.008418929,-0.04247301,0.07340178,-0.015729873,-0.06920409,-0.02601334,-0.04269863,-0.06449785,0.051185712,0.050595332,0.0058943997,0.0012076851,-0.010230051,0.0063482267,0.02098601,0.029784173,-0.035865445,-0.008336991,-0.0392947,-0.030800838,-0.026657209,-0.020205034,-0.0028264509,0.015081282,0.032132346,0.0074936794,-0.054962642,0.012341307,0.01815653,-0.09938635
TCGA-A1-A0SM-01,0.030802006,-0.053067975,-0.013992228,0.020921089,0.00011005625,0.032838516,-0.034729302,0.024502892,0.023429047,-0.011823247,0.023192082,0.032849442,-0.017686043,-0.01989086,-0.040971905,0.079592,0.0048776646,0.02219426,0.005436602,0.010462778,0.0121957045,0.0481783,0.008258856,0.038057692,0.023349486,-0.006272805,0.024921218,-0.017883824,0.0356792,0.010936553,0.027175292,0.02442927,0.005245533,0.008599985,0.022642141,0.035268623,-0.00022975216,0.013994989,-0.038704667,0.025989268,-0.020874549,-0.011675765,0.014157565,0.014584745,-0.0023832684,0.021337427,-0.026989987,0.009565753,0.008677849,0.022903215,0.026407123,0.016042246,0.016784765,0.029817754,0.036046468,-0.02374516,-0.0042526145,-0.013468688,0.04211796,-0.046253864,0.03748042,0.02080506,0.0213761,0.030726425,-0.020290013,0.029914817,0.014660501,0.017632876,-0.0077726115,0.013141061,-0.0034676304,-0.012322958,0.0065387073,0.04999561,-0.058053523,-0.009666778,-0.041915916,-0.003835922,-0.020414246,0.0088006845,-0.020915162,0.015384964,0.019628165,0.027252663,-0.03428834,0.0219431,-0.01277312,-0.045661874,0.018115753,-0.026441071,0.008894557,-0.049247302,0.0051240097,-0.018517613,-0.019382475,0.01121366,-0.045631044,0.012602777,0.014859041,0.028455378
TCGA-A1-A0SN-01,0.0067609847,0.0017661448,0.016014146,0.020970136,-0.010220557,0.00055610295,0.015820539,0.034707915,-0.0045242617,0.024170198,-0.004769289,-0.06012428,0.02291155,-0.010591248,0.043206744,-0.030387454,-0.05672425,-0.071404606,0.021142814,-0.0060140216,0.0010169465,0.039299063,0.005557386,0.022582907,0.007637387,0.010028098,-0.002131903,-0.0035460372,0.016149225,0.017298087,0.014134668,0.024028648,-0.018010963,-0.0002900567,0.026901975,0.12999687,-0.01367907,0.010591886,0.008937221,0.078211874,0.004506927,0.0113724675,-0.035712563,-0.009282989,-0.0005647801,-0.009493523,0.015090894,0.0032249307,0.058298364,-0.04379443,0.03661202,-0.019638974,-0.011269361,0.008177036,-0.042551618,0.00820652,-0.0068487125,0.031801626,-0.017991686,-0.015573894,-0.08153056,0.021023082,-0.041766834,-0.018979065,-0.0050267824,0.02439126,-0.007752743,0.005573475,0.0070450986,-0.025893224,-0.024559388,-0.03512718,-0.00638304,0.009444479,0.01612578,-0.027231563,-0.015866369,0.107590005,0.008526601,0.0004659854,-0.011190405,-0.012581311,0.0010768317,-0.018852796,0.06057542,0.043042265,0.037115574,-0.010852978,0.021243464,-0.014551083,0.0126623,-0.055418886,-0.010377959,0.031714328,0.017592974,0.0065383594,-0.052526552,0.01652153,-0.0555692,-0.042309467
TCGA-A1-A0SO-01,-0.016638394,0.008681523,-0.0075403163,-0.040740766,-0.02920319,0.007870382,-0.044764612,-0.048234127,0.030299097,-0.03515775,0.014860619,-0.010549296,-0.025221456,-0.029597504,0.0009992756,0.04415615,-0.030975774,-0.017492328,-0.015309585,-0.006995615,0.03749161,-0.07004212,-0.00029877108,0.015417617,-0.028760541,-0.0078792805,-0.0020334988,0.012261475,-0.024483498,-0.0077938316,-0.036949784,-0.011701403,-0.014460304,-0.018359622,-0.02329806,0.042027675,-0.01741504,-0.00827189,0.025514744,0.0018240532,0.027272863,-0.020498134,0.034697812,-0.014670357,0.0018161414,0.011830224,-0.016340572,-0.023714112,-0.008579576,-0.04237612,-0.06990269,-0.0108279,0.009379571,-0.026448566,-0.02841106,0.004698975,0.027895913,-0.035619218,-0.065902725,-0.07161568,-0.022201037,-0.0027670702,0.03575724,0.005818046,-0.012117101,-0.071136065,-0.0014986387,0.0004712846,0.020601816,0.009030011,-0.006676251,-0.007685375,-0.0633329,-0.019307785,-0.031001782,0.038009174,0.024696767,0.04610969,-0.038407944,0.00036135968,0.0055738464,0.028957374,0.0065159686,0.010318239,-0.0067933947,-0.015428502,0.009944484,0.0022601974,-0.045850057,-0.019883668,0.024959957,-0.0003475924,0.028314907,0.03875864,-0.025691915,0.011512013,-0.0028684656,-0.04042023,-0.036378853,0.05817021
TCGA-A1-A0SP-01,0.050188653,0.0017586867,-0.00920242,0.025027003,0.024412585,-0.001864396,0.021063907,0.03951571,0.024105472,0.014052278,-0.019989798,-0.051866606,0.001583907,0.00038592535,0.00207505,-0.0389441,-0.000113312155,0.0026858891,-0.031952523,-0.013182126,0.03083558,0.059790757,0.014763531,0.012995347,0.049058855,0.005254928,0.0035093194,0.013646798,0.013408418,0.014953395,0.04856361,-0.004351066,0.040460315,-0.010668978,-0.010894735,-0.020052625,0.0017904118,-0.012496835,-0.033360057,-0.027022596,-0.039998174,-0.010750901,0.012630297,-0.0022884135,0.019790143,-0.0043802727,0.026516229,-0.016016465,-0.033929795,-0.027490657,0.041374244,-0.021067223,0.0059922542,0.002273959,-0.0012414898,0.015951173,0.007203726,0.028760007,0.02574608,-0.00646556,0.016736949,0.051056996,-0.015480578,0.026671158,0.002070656,-0.026194058,0.020194797,0.009929742,0.00073629455,0.024887476,0.021020241,0.017140541,0.06333479,-0.013267083,-0.044522375,0.02854927,-0.002928961,-0.035141718,-0.0036387034,0.016569303,-0.0048744567,0.004724807,0.00041834824,-0.0016236852,0.010386997,-0.0053904504,0.0011737123,0.010725482,0.07273802,0.023264447,0.015426939,0.009962934,-0.004729413,0.016052002,0.036831547,0.02825071,-0.004788941,-0.019205207,0.015275775,-0.009203415
TCGA-A1-A0SQ-01,0.016993381,-0.032351434,-0.015817652,-0.02606776,-0.028190728,-0.005066213,-0.037329808,0.010455245,-0.05193811,-0.037150573,0.08562897,0.08647996,-0.008644203,0.0053338087,-0.04068284,0.097632445,0.018828455,-0.086785346,0.030761926,0.01505303,-0.045872692,-0.027768146,0.0039745886,0.039857928,-0.0669536,0.022397943,0.01655974,0.030667026,-0.021950446,0.024136972,-0.024273477,0.017449755,-0.02860117,0.01650089,-0.0039296392,0.038355075,0.018533558,-0.00018211175,0.01165306,-0.01752577,0.013272332,-0.026858697,0.044253636,-0.077868834,0.0020176845,0.025679186,0.02036081,0.015387817,-0.061615437,0.042468604,0.047302194,0.029128853,0.054916464,0.04935854,0.027891532,-0.014556462,0.04169681,0.02941371,-0.01091793,0.0026172972,-0.024740359,0.009524098,-0.0026108446,-0.072487265,-0.04392363,-0.042878497,0.054597843,0.023125911,0.021073464,-0.0053416886,0.032981366,0.021071142,-0.070782416,0.016952798,0.0021351832,-0.021233447,-0.007378108,0.03912458,0.03183026,0.043281894,0.024256762,0.06411175,0.042199794,0.026704786,-0.06306577,0.009527575,0.01115046,0.028859098,-0.045860574,-0.028264463,-0.0013269823,-0.028456643,-0.0054982286,-0.022430483,0.061430216,0.05483761,0.050958335,0.084321275,0.02388077,0.032343835
TCGA-A2-A04N-01,0.020934261,-0.008199917,-0.02745137,-0.012256498,-0.038197823,0.021791697,-0.01447489,-0.022993404,-0.010303488,-0.002428221,-0.013284176,0.019132702,-0.024386311,-0.021392595,-0.019647535,0.043132316,-0.018701907,-0.011968648,-0.0017672237,0.0032561428,0.019298967,-0.0026309611,0.01841323,0.022719596,-0.0044199014,-0.00062841456,-0.017223025,0.029506726,-0.0031104498,0.020555338,0.0006773139,-0.030102137,0.011893909,0.0068497146,0.027680531,0.0005498774,-0.034507863,-0.016378835,0.021266133,0.024677651,-0.017523672,0.02338051,0.017904785,-0.011210911,0.017476311,-0.026171245,-0.03139111,0.038825233,0.0029170087,0.0005892478,-0.011947349,-0.014773444,-0.023563435,0.028703365,0.039544184,-0.010726159,0.013491248,-0.053844824,-0.008302895,-0.0279482,-0.0076631457,-0.050562013,-0.017660234,-0.02893557,-0.040895313,-0.023864396,0.0014733318,0.028709901,-0.03435295,-0.021577027,0.03355767,0.004034659,0.00081413565,0.04256978,0.0035744924,-0.0043330323,-0.038053446,-0.02119952,0.004056585,0.030616645,-0.021234248,0.0068104174,-0.004165168,0.035102423,-0.011515988,0.023368077,0.014431078,-0.0097091645,-0.057325818,0.017275825,0.021461774,-0.0261603,-0.0010495204,-0.0054362197,-0.005789101,-0.022033168,0.016396396,0.040310837,0.04543851,-0.024419704
TCGA-A2-A04P-01,-0.017977241,0.0045229965,0.030197944,0.034807224,0.041265097,0.04293496,0.0036407073,-0.023648724,0.06843826,0.005876352,-0.05307857,-0.044644486,0.0070851073,0.02592226,-0.06018652,-0.049838234,0.011521653,0.004198066,0.004105041,0.01961749,0.007210498,-0.047723178,0.008014612,-0.01485024,0.010542258,-0.0537159,0.012699352,0.021326717,-0.054268416,0.018232608,0.0024224124,0.004490748,-0.021463614,-0.008032708,0.027150728,-0.0021784548,-0.04271791,-0.022225123,0.009282431,-0.018692307,-0.026759196,0.030898973,-0.032219432,0.08360248,-0.0245714,-0.03941118,0.0047589773,-0.024381945,-0.014141783,-0.005319344,-0.03907663,-0.031047514,-0.051543206,-0.03672515,-0.030639362,0.009705256,-0.03963234,-0.011908717,-0.014351838,0.010578467,0.024060791,0.032495603,0.010437088,-0.027244817,-0.03156538,0.027761325,-0.004488348,-0.031323623,-0.032668263,-0.014101331,-0.017333709,0.0003139805,-0.00782018,-0.02194779,0.00869549,0.015634181,-0.033858992,-0.03988133,0.017435046,-0.03431615,0.013286734,-0.010379102,-0.02493174,0.0013460473,-0.013338063,-0.009238495,-0.011188781,0.0120875295,-0.024135081,-0.006700911,-0.04298329,0.0075570494,-0.013921699,-0.014142547,-0.019497031,-0.018915758,-0.015141148,0.008897436,0.021112794,0.0022163833
TCGA-A2-A04Q-01,0.051001232,0.03772431,0.053820767,0.04856396,0.012484985,0.00051493733,0.04144879,-0.034449693,-0.051406845,0.047846068,0.008986054,-0.029815227,0.016120538,0.009505517,0.021053504,-0.12696908,0.011138721,-0.042045765,-0.0031871311,-0.0076370137,0.061462365,0.039420888,-0.0052374573,-0.102146715,-0.044568703,0.029452905,-0.0025443505,-0.021833263,-0.016661368,-0.019371085,0.03860803,0.007996829,0.0173552,-0.035682183,-0.0064431718,0.013047988,-0.023225859,-0.038472205,0.04385001,0.03928336,-0.009179495,0.02232199,0.027231643,-0.039844565,0.0064728633,-0.027307218,0.008373633,-0.047563493,0.0115240365,-0.013771788,0.01917391,-0.027810533,-0.03211908,-0.026118688,-0.0032091574,-0.020173533,0.0065998333,0.019819766,0.0025772406,-0.0002448978,-0.016916683,0.018781258,-0.0016712742,0.029671898,-0.008965535,-0.013745975,-0.013636905,0.016486065,-0.0039979457,-0.016951533,-0.010774506,0.04699943,0.08009864,-0.009848406,0.006505129,0.08414247,0.0005447306,0.036940746,0.0143837575,0.005725516,0.020042092,0.0028252965,-0.0094777215,-0.008292211,-0.08759531,0.05497522,0.026446253,0.037008274,0.014383767,0.017862868,0.0029118764,-0.015740525,-0.03371675,-0.041021273,0.033144973,-0.02807765,0.012910801,0.055436686,0.034361973,-0.013178257
TCGA-A2-A04R-01,-0.016974565,-0.009899721,0.039062627,0.01138093,0.009098078,-0.019785682,0.027280359,-0.05180935,0.07151042,0.031156082,-0.030922629,-0.059658427,0.028336005,0.01659109,0.038749143,-0.10947596,0.033978418,-0.021006668,0.0016648457,-0.03863436,0.014617757,-0.016760927,0.030449457,-0.014296539,0.0071427897,0.045853984,-0.040039007,-0.00235811,-0.0033962815,-0.035966456,-0.0024268623,-0.010312962,-0.037417464,-0.01585383,-0.04178468,-0.015534028,0.029330563,-0.022788258,0.030536957,-0.011960487,-0.03517836,0.050389733,-0.0029471978,0.026428072,-0.022616547,-0.01900532,-0.026300032,-0.015189768,0.040462323,-0.024598118,0.028966766,0.0006195996,0.00070203934,-0.024313089,-0.02998988,-0.00049621053,-0.015841108,0.013964479,-0.024430173,-0.024446249,-0.027197955,-0.03938866,-0.008446564,0.003997973,-0.032809947,0.003191424,-0.0274277,-0.033822224,0.0011732001,0.012841688,-0.035640266,-0.039216068,-0.055485122,0.017622465,-0.044557188,0.014179426,-0.030364698,-0.0012560226,-0.009347182,-0.0044252803,0.007051984,-0.004978288,0.018936787,-0.006115101,0.03386936,-0.032196753,-0.035505235,-0.07230863,0.019212293,0.018546965,-0.013105986,0.0061501916,-0.007687738,-0.0043105357,0.01011696,-0.022237297,-0.036169987,-0.0009639254,-0.041885808,-0.06768229
TCGA-A2-A04T-01,-0.01883499,0.007469953,0.008313238,0.0037437864,0.004971794,0.09648368,-0.004841189,-0.036938436,0.05937132,-0.015620075,0.013761077,0.023289435,-0.0017664507,-0.013495021,-0.010614344,0.054827865,-0.029146727,-0.031310216,-0.021462847,0.005889379,-0.02473558,0.058566086,-0.017242644,-0.027708668,0.0025524106,0.028300263,0.0017234199,0.019263932,0.036303878,-0.018586969,0.05292449,0.014759685,0.017420951,-0.0001369873,0.022137132,-0.007434072,-0.06845915,-0.002771806,-0.012263848,-0.003912875,-0.008161194,0.05026619,0.005298329,-0.0044633355,-0.005533253,-0.02745812,-0.012950788,-0.017035104,0.028211508,0.00401273,-0.0011444199,0.017655022,-0.030704163,-0.0018830474,-0.021169037,-0.014061194,0.01918199,-0.012381145,-0.049900427,-0.055227008,0.040335312,0.042525508,-0.027508758,-0.00040588249,-0.034211773,0.032045655,-0.015424209,-0.026245762,0.031930875,-0.032857977,0.0047036186,-4.2292988e-05,0.00850404,0.025447354,-0.03051129,-0.031330094,-0.0020368397,-0.0020297915,-0.044642355,0.021526106,-0.064047314,-0.0009766379,-0.008515309,0.0058111963,-0.022791488,-0.0017418507,0.012532518,-0.0041216635,0.013972305,-0.024693929,0.008564564,-0.042899054,-0.0057369526,-0.005773686,-0.029048929,-0.00206477,0.02566342,0.010634616,0.05978458,0.03207335
TCGA-A2-A04U-01,0.014760343,-0.03303699,-0.042078875,-0.044865567,-0.023759205,-0.056233633,-0.009849553,0.005603726,-0.035066232,-0.044120077,0.020339124,0.01111609,-0.029703658,-0.018392265,-0.036291137,0.06334543,-0.01585309,-0.0070612635,0.04451946,-0.00772087,0.00041598268,0.05956365,-0.010632603,0.036879513,0.09843058,-0.04473181,0.030377895,-0.0038904808,-0.00875927,0.043588992,0.0059683076,0.018342368,-0.011089388,0.024371803,0.026597718,-0.044558175,0.044678736,0.023634061,-0.02895885,0.020517841,-0.007019407,-0.04380219,-0.08583673,0.051659167,0.017382678,0.0049279984,0.011502614,0.010839077,-0.041232944,0.0041067824,-0.0006103795,0.0077820625,-0.020197079,0.012897821,0.007925109,0.026276922,0.028159067,-0.023013957,0.009392164,0.10728436,0.02665105,-0.003975046,-0.00760646,0.010806766,0.054542262,-0.00083007757,0.014786335,0.011847402,-6.755348e-05,0.0032442166,-0.011167154,-0.00031252299,-0.013025501,-0.00023068115,0.005339361,0.0010581282,0.0060124914,-0.0006923452,0.026223915,0.010400958,0.034273706,0.005306043,-0.008854823,-0.01129833,0.048513543,-0.007456514,0.025157813,-0.021976743,0.04927165,0.009390157,-0.0039986,-0.0100694625,-0.0038703121,0.012877712,0.03743871,0.023636438,0.0049854047,0.0343512,-0.0015534174,-0.024832686
TCGA-A2-A04V-01,0.020009402,-0.016480105,0.0031968905,-0.014618147,-0.011000151,0.035404954,-0.020308776,0.020785704,0.07248864,-0.030278884,-0.0065571526,0.032346405,-0.02126729,-0.024310282,-0.058227662,0.11150397,-0.07561957,0.015717808,0.025492813,0.04967962,-0.041042462,-0.004196274,-0.014724456,0.037745576,0.08064363,0.0012588995,0.053949393,0.049073808,-0.04256359,0.048341002,-0.07044453,0.014346128,-0.056161076,0.047177017,0.043426115,-0.014858754,-0.036681686,0.044320635,-0.04747615,-0.010418821,-0.013175465,0.019813286,-0.032892525,0.08613499,0.014086781,-0.030420039,0.053265102,-0.0060756383,-0.06010385,-0.0046222163,-0.06662466,0.023278974,-0.05763958,-0.00281006,0.04217809,0.05437171,0.017175054,-0.03202827,0.0721754,0.0429084,-0.028105218,0.021531649,-0.06647321,0.021789784,0.030062547,-0.031256553,-0.024076814,-0.00467794,-0.012326509,-0.047219574,0.0038002767,-0.018705335,0.03236994,-0.013894696,-0.024791574,-0.016146583,-0.08334777,-0.089574374,-0.021803956,-0.03448867,0.0012662876,-0.016785562,-0.012342202,-0.01607793,0.047236994,0.063346274,0.018888338,0.013538783,0.019025547,0.029955935,-0.015827551,0.008106273,-0.016733997,0.079491064,-0.03582128,0.005114142,0.061439443,0.050007418,0.011054467,0.04338346
TCGA-A2-A04W-01,-0.005136377,-0.0015553543,-0.015206,0.0092934435,-0.011820072,-0.0059291217,-0.010205399,-0.0038947016,0.052272927,0.0119312825,-0.0016854904,0.004263659,-0.026195578,0.0027224403,0.06566232,0.055007808,0.031633943,0.0014651685,0.0028266115,0.0013525812,0.012845161,0.025234733,0.016593475,0.028006833,0.017767776,0.015080289,0.013690063,-0.012380139,0.046605974,0.018792657,0.0050899135,0.034138273,-0.0023355195,0.03971997,0.01261602,0.026061006,0.030059028,0.0129605755,-0.02269058,-0.016972113,-0.0063367626,-0.008139821,0.046064526,-0.0026078348,0.0048065106,0.015125177,-0.046068884,0.02615174,0.028085077,0.016919032,4.853867e-05,0.0045814672,-0.004267149,0.025948463,0.00521856,-0.054046895,0.027591651,-0.08287214,-0.034027275,-0.023480305,-0.017869517,-0.019505972,-0.0066307234,-0.065643735,-0.0569031,0.0072529037,0.05471455,-0.006037902,-0.06298423,0.0044600805,-0.012779982,-0.0015668096,0.0100546405,0.015292735,0.028285278,-0.019677948,-0.094002284,-0.08656851,0.010242654,-0.0291145,-0.04430211,0.0013052077,0.0038909814,-0.015103443,0.009639999,0.03807795,-0.026747445,0.0068141865,-0.020585958,0.029992243,0.0031048069,-0.03942673,-0.016673213,-0.0004064103,-0.0042834934,0.006241709,-0.046328966,0.000840642,0.02531923,-0.02144282
TCGA-A2-A04X-01,0.01727441,-0.015649617,0.025937827,0.019293958,0.014971394,0.017779678,0.01212527,-0.054910675,-0.0013349559,0.008951234,-0.030712934,0.0014156001,0.017663047,0.011464421,-0.0039850045,-0.006308737,-0.0005576126,-0.044820048,-0.030249255,0.024632003,-0.015053056,-0.019061856,-0.0071583833,-0.0326661,0.014492585,-0.014740594,0.0051189503,-0.027322302,0.015810277,0.009312436,-0.008302497,-0.0069307433,-0.0075013735,0.028927285,-0.008763649,0.03232474,-0.0077531664,0.00085389474,-0.051180676,-0.02034508,0.0018015597,0.033741508,-0.02986257,0.055118434,-0.0136132445,0.012310521,0.049016,-0.05196642,9.837188e-05,-0.033294003,-0.007236409,-0.011397669,-0.020120207,-0.015814187,-0.009743879,0.007535113,-0.018462693,-0.056812435,0.04389005,0.0026260398,0.0102282865,0.032672923,0.018826762,0.006155519,0.024111146,0.0022190562,-0.030587604,-0.033832368,0.021853436,0.009423709,-0.021685462,0.016796391,0.008335962,0.0023848028,-0.008994666,0.06592397,0.039096534,0.003662669,-0.014035487,-0.03148272,-0.04913853,-0.025539165,-0.022006763,-0.021933949,0.02031402,-0.012370959,-0.009363548,0.015700966,0.033509802,0.046917997,-0.008595912,0.029792102,-0.028334342,0.050580967,0.014607015,0.0044093616,-0.054399412,-0.00029239524,-0.0011841357,0.00346635
TCGA-A2-A04Y-01,-0.032467436,0.0015694688,0.0013445937,-0.033316247,-0.023153918,0.011940835,-0.0029723607,0.014557671,0.03280739,-0.026025021,0.0075875716,0.0042921742,-0.0025691504,-0.02053353,0.008130474,0.10063808,-0.008096589,0.017272873,0.046784345,0.029391155,0.0057837134,-0.021905022,0.024600074,-0.0013023615,-0.0119652515,-0.052444655,0.011959234,0.049318302,-0.014007896,0.02909442,0.031906594,0.037224546,-0.050760504,0.02453664,0.01501135,-0.0109811425,0.0074108904,0.036660895,-0.010194812,-0.011267242,0.02056795,0.014262366,-0.039324667,0.103021294,-0.014207172,0.0027839346,0.0282607,0.00018406543,0.06423828,-0.0042731273,-0.0043028556,-0.021810267,0.0079262145,-0.018067276,-0.0269445,0.0125289215,-0.011280317,-0.031367745,-0.03616065,0.015044289,0.023855552,-0.03364235,0.039089877,-0.02238579,-0.00013066689,0.00944919,-0.00072623324,-0.0034959465,0.00689397,-0.01253422,-0.00054004043,0.034351785,-0.08976322,0.013766976,0.027098842,-0.005649902,-0.006409785,0.030118821,-0.021891892,-0.035476796,-0.012916707,-0.025447512,-0.026957082,-0.025140237,-0.028527178,-0.028873963,-0.020491146,-0.0022570603,0.0036657024,0.026982464,-0.022705922,-0.009951277,-0.025543101,0.021599732,0.010933943,-0.023825962,-0.083339185,-0.07081665,0.056534283,-0.024255637
TCGA-A2-A0CK-01,-0.017960852,0.0057899808,0.017669072,0.024518477,0.030087084,0.054124936,-0.0062074717,0.022569317,-0.002590118,-0.013964818,0.027075414,0.048298,0.01993062,0.03820755,-0.04183064,-0.074487954,0.05813417,0.037025142,0.02430598,0.0050130878,-0.036514528,0.046457123,-0.014034722,0.027911263,-0.05227164,0.039603315,-0.02169537,-0.011114282,0.041136727,-0.01618459,0.021812083,0.02463549,-0.022229042,0.0028427038,-0.00948267,-0.034750745,0.015590606,-0.00538625,0.0124181835,-0.011767257,-0.012074568,-0.0019627125,0.01762377,0.034556653,-0.025143247,0.0050679776,0.049300976,-0.017093202,0.036695212,-0.025877185,0.051223733,-0.03236725,0.04445299,-0.0078024925,-0.019071223,0.04412301,0.0049176626,0.0009873952,-0.03027505,-0.0108105745,-0.0017439201,-0.0033252225,0.019896558,-0.006873194,0.00090104435,-0.013636704,-0.0017829458,-0.01674498,0.007662328,0.05496778,0.020867966,-0.010073494,-0.021657158,-0.0039544255,0.011122929,0.026091551,0.0041859522,0.072484046,0.025883336,-0.008086614,0.004922371,0.023180673,-0.015743725,0.0061974507,-0.0020419098,-0.00847831,0.02112174,0.009331357,0.062165767,-0.01403793,0.026028467,0.06580048,0.024635155,0.022673614,0.00967827,0.03764307,0.008303007,0.023847157,-0.025079854,0.01099199
TCGA-A2-A0CL-01,0.040696792,0.006502387,-0.014260051,0.0013256911,-0.0114366785,-0.0046066735,-0.0005406728,0.061343893,0.0033712033,-0.004402318,0.059918854,0.02705947,-0.01040443,0.02843367,-5.8212318e-05,-0.0050746445,-0.008763389,0.01299984,0.01746684,0.021949435,-0.02215197,0.016080502,-0.0033892794,0.01252414,0.021988492,0.002894679,0.0064056786,0.022384178,-0.0066637844,0.04495489,0.0072018597,0.0417945,-0.024571044,0.02392906,-0.0008357647,0.06404262,0.013483098,0.011530962,-0.019358281,-0.0166379,0.03936019,0.011537075,0.006806775,-0.029608395,0.011849051,0.010685466,0.053799484,0.018292014,0.020100597,-0.011032983,-0.018017387,-0.025377393,0.0441974,0.008701777,0.007616642,0.0122683635,-0.04361126,0.011410115,-0.0177579,-0.005399321,0.018078888,0.025439326,-0.009187983,0.028797472,0.038059354,0.011902597,-0.013392421,-0.010140597,0.0019481899,0.006485227,0.027815215,0.028310508,0.008115474,-0.041436557,0.01980592,-0.0025876313,-0.01740946,0.021726409,0.07179796,0.005646171,0.030285832,0.008182283,-0.0139158815,-0.0034589819,0.03766495,0.021286879,0.057477962,0.015703963,0.04903765,0.04005584,-0.008078035,0.051477395,0.01943558,-0.006590482,0.016414195,0.0047852676,0.011389991,-0.008393164,-0.048301063,-0.0029805014
TCGA-A2-A0CM-01,0.048589163,-0.021448385,0.0015493026,-0.022695526,-0.011589909,-0.058623716,0.013995067,0.029430354,-0.0073794154,-0.0041032024,0.011578085,0.028790426,0.030778289,0.034707792,0.043772113,-0.0056416774,0.016797176,0.019748122,0.0025215317,0.005919181,0.018549576,-0.06777529,0.016145883,0.012740072,0.024068134,0.060587578,0.008316744,0.0035941447,-0.03390157,0.002180548,-0.041401822,0.013908847,-0.028115677,0.0014910953,-0.0071643516,-0.025826097,0.037108682,0.0025007678,0.0052599357,-0.012847526,0.016853694,-0.013609834,0.027362607,-0.006387175,0.01156589,0.031508677,-0.005456843,0.0077122804,-0.03570266,0.028167501,-0.008404255,0.031192616,0.0053264163,0.024045372,0.010857638,0.024937794,0.026974304,-0.008473877,0.011908295,0.062099915,0.015810333,-0.038255665,-0.009377826,-0.038860068,-0.0055543925,-0.04419094,0.0010192618,-0.0030242866,-0.043823626,0.048795126,0.0052199964,0.011212947,0.017711751,-0.0317683,0.026259497,0.040326133,0.04177816,-0.0290723,0.044216946,-0.0020448184,0.06023082,0.009229504,-0.011694074,0.004764979,0.012358962,0.057866655,-0.0072629065,-0.028887523,-0.0060496936,0.037830207,-0.013795309,0.028402358,0.005230819,-0.004402943,0.013922019,-0.007952419,-0.012502393,0.006815396,-0.007825347,-0.04980887
TCGA-A2-A0CO-01,0.036771595,0.0053585395,0.018448386,-0.0069742557,0.03025752,0.037760638,-0.019642126,0.01230914,0.040667124,0.023796506,-0.0049940348,-0.020943461,-0.012462814,0.00920921,0.025297942,-0.022327885,-0.026244676,0.03390947,0.016443808,-0.021351395,0.013153008,-0.010130322,0.002208272,-0.008182108,0.0038842112,0.022239141,0.0028298309,-0.044641018,-0.016941903,-0.006454358,-0.004992582,-0.026558438,0.00042238296,0.0022482988,0.0143706165,-0.00064278767,-0.004641932,-0.020964142,-0.012333877,0.030840486,-0.035341963,-0.010435461,-0.019745141,0.025433086,-0.0055782683,-0.0040631136,-0.041888002,0.004648002,-0.021362659,0.005875388,0.01593041,0.01816905,0.0037048003,-0.016533663,0.0020255893,-0.020222753,0.023681385,0.042765997,-0.016789678,-0.033598438,-0.0102545675,-0.0555511,-0.017527295,0.008689849,-0.013920053,0.019576624,0.015656628,-0.020192983,0.022071486,-0.0040114326,0.033762746,-0.0114197135,0.035922,0.03886606,-0.036955863,-0.00901703,-0.03734038,-0.042108472,-0.042139947,-0.0031819465,0.0043438673,0.011516515,0.008604756,0.027688712,-0.025309324,0.052785642,-0.044174727,-0.026601229,-0.042419568,-0.0038211076,-0.010218825,-0.03213257,-0.012732056,-0.04632429,-0.0059656925,-0.0169554,-0.038454413,-0.008702902,0.031775057,0.007522437
TCGA-A2-A0CP-01,0.005095183,0.02545528,0.020947235,-0.025006734,0.0006552057,0.031817965,-0.012443313,-0.01724073,-0.028272152,0.016569383,-0.032285888,-0.0625734,-0.014169401,-0.02416055,0.02110433,-0.048388235,0.057346575,0.030245448,-0.033057198,-0.067844555,0.026302148,0.047700495,0.04320971,-0.020170396,0.03234279,-0.051630214,-0.0830376,-0.057644334,0.05103081,-0.04216563,0.041749194,-0.05501032,0.023270607,-0.033873897,0.0016814405,-0.0270162,0.011959229,0.01652976,-0.007777598,0.049411327,0.016977284,-0.02354752,0.042498283,-0.08614272,-0.0069862204,-0.057175476,-0.04512233,-0.00095172133,-0.0057149287,-0.008942197,-0.023981418,-0.0074719014,0.014119337,0.034303676,-0.0029280423,0.028372789,0.038626116,-0.011976397,-0.053002983,-0.035712928,-0.023388505,0.013355138,0.0057717836,0.0117258,-0.010687783,-0.011320381,0.019930933,0.039041437,-0.032367475,-0.026006952,-0.028412502,0.038536187,-0.03748822,-0.017588094,-0.004065377,0.02146535,0.051034957,0.018141085,-0.050971232,0.02797689,-0.039465632,0.002129115,-0.004590825,0.017463041,-0.009995654,0.035700276,-0.017352786,0.009605428,0.04315834,-0.02280829,0.021687733,-0.0076692374,-0.0059087984,-0.025246589,0.017045181,-0.009616299,-0.019107057,-0.10931464,-0.011616882,0.020438647
TCGA-A2-A0CQ-01,-0.029753787,-0.005244744,-0.022494592,-0.02500156,0.028202035,-0.026013128,-0.017228313,-0.032513697,-0.015608173,-0.019676961,-0.0233763,0.027161174,-0.009276598,-0.00823138,-0.0053263865,0.049727805,-0.03974944,0.0041828123,0.029405007,0.0032631978,-0.04523819,0.03593928,0.011688869,-0.0015603655,-0.060920574,0.00041612517,-0.003040906,0.020061903,0.011486183,-0.007970359,0.0048870156,0.03958657,0.011508413,0.005871418,-0.026184693,-0.005916507,0.0073560085,-0.025116239,-0.0046079513,0.028730249,0.0014459379,-0.041802116,-0.01973438,-0.013824605,0.006657788,-0.045539215,0.0140761845,0.01078824,-0.022381684,0.03677874,0.011600814,-0.0031008644,-0.038538456,0.025193173,0.0016180668,0.015803434,0.03110212,-0.0070159845,0.016685564,0.029267836,-0.012829957,0.0063210395,-0.017277779,-0.015720341,0.012303373,0.003745915,0.008243021,-0.010903502,-0.011135399,-0.01761826,-0.007440049,0.004103139,0.011079052,0.014709827,0.023494389,0.008782401,-0.02684928,-0.016821103,-0.012014363,0.0038762577,-0.002299211,-0.020738825,-0.02401364,-0.030474735,0.04083307,0.021858972,0.050524317,0.031063713,0.042325806,-0.0071394974,0.0076261465,-0.032020383,0.006511951,-0.013730186,-0.0039537055,0.006336415,0.028044544,0.038183484,-0.003019869,0.043530565
TCGA-A2-A0CR-01,0.0044027027,0.02066996,-0.003161896,0.014986608,0.031229714,-0.010058156,-0.018730415,-0.01990316,0.04434029,0.0022576945,-0.03157491,-0.06363584,0.008371167,0.008279511,0.0009611575,-0.07277546,-0.0014794432,-0.03512462,-0.04757552,-0.003703232,-0.0050643794,0.012150701,0.004029474,-0.014837153,-0.02078595,0.012258735,-0.010711325,-0.047114152,-0.0044496283,0.0067679062,0.022861265,-0.04940721,-0.02106772,-0.034295704,-0.0040866695,-0.010931633,-0.02805131,-0.044705562,0.02727352,-0.018574685,0.0029180488,0.017552305,0.024136418,0.045395575,-0.018365627,0.0403417,-0.064512335,0.005252616,-0.025746167,-0.0038829772,0.011924239,-0.0200544,0.01344344,-0.026510365,-0.022356734,0.013949474,0.019694969,0.037785355,-0.032601744,0.00093045644,-0.041661195,-0.023851657,-0.011090929,-0.0069622826,-0.0066973567,-0.017754903,-0.0088269105,0.028369928,-0.020456994,-0.031090692,0.009709934,-0.0040539373,0.025858795,-0.0027990174,-0.07818209,-0.051301084,-0.058949508,0.035229072,0.010270726,0.025573673,0.0011254936,0.018193312,0.01549554,0.00021703378,0.03098357,0.012944546,-0.024461761,-0.019317318,-0.009537093,-0.019078342,0.01638078,-0.014797314,0.029778127,-0.0028769337,-0.011124967,0.042234447,-0.030649355,0.0012959279,0.018093996,-0.0017771339
TCGA-A2-A0CS-01,0.07675252,-0.046344414,-0.039168786,-0.02658748,-0.026822885,-0.031094855,-0.017449241,0.03186986,-0.0050732456,-0.04186196,0.04216506,0.099740826,-0.0037685155,-0.013166202,-0.03333708,0.09358219,-0.0077590914,-0.014022699,0.03492776,0.04606773,0.03432618,-0.06219401,0.017071903,-0.004603341,0.015035419,0.03633794,0.066980675,0.027397843,-0.027462732,0.041282203,-0.027747927,0.028327636,-0.029477436,0.036061503,0.04657934,0.017307729,0.021187391,0.025600947,-0.037235312,-0.007854238,0.06356074,-0.023617078,-0.025680939,-0.004630808,0.004127415,0.031137524,0.0039914493,0.020816827,-0.004334502,0.039721888,-0.050160807,-0.0089026615,0.022169543,0.034348153,0.01845985,-0.029380199,0.023925558,0.03265839,-0.01219679,0.014109765,-0.015627077,-0.016290313,-0.02566407,-0.018463993,-0.012347656,-0.013894221,0.026799083,0.031267524,-0.024915034,0.03633339,0.028484106,-0.0048006168,-0.011209896,-0.017961765,0.061332658,0.051173862,-0.053541012,0.035358522,0.049852204,0.003314346,-0.0017864704,0.0043846886,-0.02255958,0.012886322,-0.018359099,-0.024862284,-0.044564,-0.039459087,-0.07431883,-0.0023853476,-0.013624225,-0.002775542,-0.022343405,0.015802478,0.008012075,-0.004857202,0.0016101515,-0.009998994,0.053650364,0.00922994
TCGA-A2-A0CT-01,-0.010270689,-0.0032831791,-0.025993519,-0.022136282,-0.018818505,-0.05177304,-0.0011237375,0.021789484,-0.023408202,-0.01123837,0.007918875,0.047879342,0.019091304,-0.015685957,0.019036166,-0.011217915,0.009137025,-0.031939626,-0.009241571,-0.0036143763,0.019564558,-0.01217223,0.0058963634,-0.050039526,-0.0038311463,-0.0021259529,-0.022808101,-0.019175384,0.007196861,-0.010445255,-0.0069522355,0.028572546,0.055385157,-0.0048327367,-0.027570121,0.02374493,0.050268967,0.0048328936,0.03285907,-0.008682832,-0.011345972,-0.041386563,0.006471029,-0.07721254,0.015825365,0.0135799125,-0.017032783,0.013640933,-0.07023285,0.015760202,-0.018976156,0.04014837,0.0036065765,0.023848388,0.011197538,-0.0042448016,0.005751604,0.020555008,-0.03849366,0.012271578,0.022164311,-0.013392245,-0.0065893596,-0.004666876,-0.05799422,-0.005635532,0.023971017,0.028837007,0.0017972831,-0.011330701,0.020332174,0.011070512,0.08160927,0.022210151,0.04864942,0.022130627,0.03631564,-0.025425242,0.027143981,0.015610002,0.008126363,0.022165067,-0.001964041,0.014741966,-0.020475224,-0.020216903,-0.008837667,-0.01593737,-0.024954867,0.06019204,0.008538901,0.0033919439,0.03367087,-0.06056067,-0.0096013,0.013388796,0.042646613,0.016816134,0.02838947,-0.0016935669
TCGA-A2-A0CU-01,0.038829528,-0.021812268,0.01097336,0.0064362753,0.020469079,0.0031329892,-0.027794676,0.03211429,-0.01241292,0.00014578085,-0.008481763,-0.028885243,0.004304241,-0.021397553,-0.08671601,-0.0066577336,-0.04577946,-0.008469748,0.027473506,0.026776172,-0.016237803,0.107223235,-0.013048644,0.045284793,0.00942957,-0.035157423,0.0148722315,0.03825133,-0.030056145,0.002721426,0.09658066,-0.008696023,0.007446669,0.01430098,0.017194182,0.004360918,-0.016142804,0.034012936,-0.01228886,0.016305562,0.012007942,0.024900243,0.026519252,0.06594914,-0.0046427427,-0.013937782,0.00029331679,0.018743666,0.003294848,0.01663695,0.026228413,0.0035382928,0.035536338,-0.005432477,-0.018493371,0.021070197,0.028663972,0.02595067,0.019402038,0.084715694,0.011069854,0.020422412,-0.009581637,0.007848487,0.014080233,0.04180351,-0.02294736,-5.596783e-05,0.004427806,-0.055904243,-0.030254122,0.016319027,0.021887412,-0.039277237,-0.039362147,-0.035697207,0.026405308,0.0590601,0.019377682,-0.0020895451,0.0829732,-0.0020410279,-0.029559191,-0.009596072,0.020762177,0.034969896,0.016019693,0.04719866,0.051915295,-0.027523026,0.012808562,0.024195211,0.024233805,0.028657747,0.00036507344,0.03532177,-0.018659433,-0.012798746,0.053212807,0.010299498
TCGA-A2-A0CV-01,0.045993652,-0.026190473,-0.023700386,0.016463328,0.0026993016,-0.030530883,0.009280069,0.013631169,0.009943573,-0.009658607,0.010953123,-0.0050594453,0.005561871,0.02953737,-0.05049058,-0.046180647,-0.0048544514,0.05618365,-0.044892937,0.024673533,-0.027317576,0.014514316,-0.023128886,0.028061239,0.061645217,0.019662295,0.0113872485,-0.008827164,-0.034367807,-0.016918655,-0.02270568,-0.014367803,-0.0070221974,-0.017771928,0.00444216,-0.019167084,-0.00872303,0.002266516,-0.025471652,0.041496344,-0.014768966,0.012702886,0.030418277,0.027524306,0.028978877,-0.002898994,0.0038527523,-0.044918288,-0.056819957,0.03411956,-0.01785906,-0.011559134,0.08348948,-0.017807197,0.036059834,0.060400758,-0.0016026573,0.044410996,-0.00547353,-0.028446399,-0.0021408116,-0.02042128,0.012642331,0.023400469,0.021985907,0.04969865,-0.018276175,0.008376625,0.025037047,0.005583981,0.018104073,-0.008954813,-0.003593239,-0.0040637143,-0.029075092,0.001528739,0.002267113,-0.031870794,0.016867962,0.01626092,-0.030464921,0.012926303,0.01178619,0.035384785,0.04335516,0.01390098,0.028211277,-0.02089604,-0.013820021,-0.0052970294,0.0061463956,-0.0006244248,0.025714517,0.014484923,0.0037248991,0.01276185,0.035438217,-0.016832892,0.024499502,0.054792084
TCGA-A2-A0CW-01,0.012571027,0.022081988,0.011035275,0.010681117,0.002864148,0.0003239764,0.05479374,0.019186322,0.02479348,0.014078606,-0.03345721,-0.017774614,0.019674499,0.009409616,0.0074297227,-0.042897157,-0.0030758353,-0.025595523,0.011129181,-0.007296105,-0.041013055,0.014606395,-0.010631845,0.052668653,0.012647238,0.009803597,-0.024382558,-0.0016314387,-0.027987365,-0.014018968,0.02088409,0.018784441,-0.00090113096,0.0011672154,-0.012854134,0.03419333,0.02186927,0.0069914814,3.4840778e-06,0.016659655,0.0050730836,0.05417811,0.008928007,0.010646491,-0.020428987,-0.0098086465,0.016424902,-0.025417268,0.02948752,-0.005793412,0.004816142,-0.015668418,0.012194853,-0.004998234,0.0013475379,0.022413032,0.0031517588,-0.007174612,-0.036782995,0.00033447333,0.0035787849,-0.015928447,-0.0206483,-0.010097442,0.027661735,0.0017071783,-0.05479174,-0.023193968,-0.020264052,0.011222105,-0.040811796,-0.0036124038,-0.049735006,-0.02143967,-0.023568925,-0.03422102,0.011390755,0.027252557,0.029626938,-0.02176331,-0.036189422,-0.013081622,-0.02460386,-0.0054470943,0.07337604,-0.008299915,-0.010498419,0.02716144,0.03394747,-0.013962222,-0.008710058,0.054110385,0.029199464,0.056335837,0.017370205,0.03688914,0.01682541,0.014506161,-0.09197838,-0.0065911002
TCGA-A2-A0CX-01,-0.06114749,-0.0134082865,-0.002942231,0.018150035,0.006054443,0.042018306,-0.03176764,-0.025453003,0.0031733941,-0.009297913,-0.011826842,0.0043202564,-0.0015953276,-0.008540948,-0.043072037,0.02237979,-0.01072569,-0.016008917,0.027758684,0.0017039193,-0.0048479363,-0.01417333,0.023247933,-0.011188945,-0.029214285,-0.020088943,0.0063510537,-0.006805816,0.0045317747,0.006096351,0.0072877184,0.03304945,-0.03367747,0.020868737,0.0061640646,0.040325172,0.019568656,0.008705366,-0.0005278508,-0.029396232,-0.04554046,-0.0015943134,-0.03199764,0.048225034,-0.0022356417,0.024521613,-0.011297069,0.01828705,0.053733066,-0.029858114,0.018750165,-0.010738123,-0.026517298,-0.0074420553,-0.00064300094,-0.042981125,0.02426901,-0.03143145,0.023614734,0.00015654834,0.040860493,0.0048535387,-0.04964449,-0.01019486,-0.0027381694,0.0004434729,-0.027964933,-0.002937426,-0.0059676263,-0.024730742,-0.018162832,0.02480202,0.019380577,-0.022854028,-0.030808061,-0.011058375,-0.044293087,0.024164062,0.03652433,-0.0074311933,0.015713843,-0.0067857774,-0.02402765,-0.03078728,0.009203153,-0.046034355,0.02125557,0.0037014252,0.0026365374,0.036045123,-0.024171883,-0.021109335,-0.014382228,0.028552696,-0.016591888,0.0007974077,-0.017794557,0.0077552265,-0.004598767,-0.05361948
TCGA-A2-A0CY-01,-0.0047918856,0.02542585,0.06841396,0.037575252,0.017546434,0.021998744,0.04725469,-0.0017910183,-0.007049624,0.04235334,-0.05885279,-0.05490515,0.015174304,0.030460069,0.0032985061,-0.19268304,0.056410477,0.028893182,-0.050830193,-0.071569204,0.018964808,0.04642414,0.030017536,0.007852284,-0.02348004,0.06670299,-0.08280994,-0.043321338,0.027082484,-0.07168346,0.03827961,-0.061719365,0.0747887,-0.07468248,-0.03669685,0.017388884,0.05195912,-0.04334411,0.04776298,0.015357925,-0.07113361,6.706314e-05,0.06777832,-0.03677106,-0.030511606,0.011527535,-0.0293664,-0.0024133222,-0.016823532,-0.024731483,2.1222513e-05,-0.048424926,0.027221702,0.0016594161,-0.014645215,-0.007002416,-0.009395097,0.04111723,-0.09323423,-0.067866474,-0.027950957,-0.0461197,0.027403276,-0.018459462,-0.036304675,-0.021325074,0.021842498,0.02083955,0.013567658,0.025771584,0.02021188,-0.030482035,-0.0016136821,0.028196443,-0.069155216,-0.00992415,-0.05874704,3.5543926e-05,0.02095691,0.021411734,0.0020883894,0.028618604,0.02851799,0.056822956,-0.05600575,-0.0053623943,0.006067982,0.0015229159,0.034504224,0.05144575,0.034174986,-0.023395443,0.016098358,-0.076735646,-0.05414231,0.008851204,-0.04520587,0.020520547,0.020138312,0.017901843
TCGA-A2-A0CZ-01,0.0022602337,-0.015790632,0.004703556,0.0067821415,0.033548877,0.0038989577,-0.014777308,-0.04795224,-0.051229235,0.007407524,-0.008154669,0.004822604,-0.004748383,-0.02468967,-0.024798002,-0.039088868,0.07118258,-0.025648734,0.0009861141,-0.051165696,-0.0067724753,-0.0026228689,0.034904733,-0.04470429,-0.01423751,0.0063419268,-0.033208713,-0.025411524,-0.018025082,-0.06381041,-0.009231694,-0.042207688,0.007406165,-0.024661426,-0.046538215,-0.0128415115,0.05284014,0.004008839,-0.0017888765,-0.011613529,-0.059273772,-0.062586956,-0.0061832312,-0.07333364,-0.00964601,-0.0033265147,-0.0075761667,0.008280901,-0.011972843,-0.00594553,0.08821397,0.027790979,-0.013141236,0.026840188,-0.0044454117,-0.020056453,0.01023474,-0.03861606,-0.027606321,0.031417653,0.04441044,-0.047330264,0.021232175,0.01942013,-0.02457942,-0.0026350522,0.02308173,0.027657708,0.036948387,-0.041751266,0.000233314,0.04421752,-0.03810475,0.025818942,0.046461895,-0.0029151188,0.06399236,0.024745185,0.013208752,0.014334042,0.08504385,0.036990847,0.023943538,0.0310894,-0.03659719,0.02730541,0.04278426,0.001753414,0.033285476,-0.0113098435,0.02757992,-0.008738248,0.000108199194,-0.03858212,0.00068294303,0.031222228,0.034498155,0.039980292,-0.032680094,-0.03163124
TCGA-A2-A0D0-01,0.052998118,0.0028594942,0.03196798,0.048560556,0.006602687,0.046545736,0.0062624947,0.0061152,0.025814692,0.01810421,-0.019468673,-0.0065562297,-0.024981545,-0.008997975,-0.013330933,-0.0068382956,0.049681257,0.016606417,-0.0053200433,-0.0016121881,-0.048053626,0.019786753,-0.026806645,0.077819966,-0.045269847,0.006820831,0.011496689,0.006988218,0.03147751,-0.015937362,0.009978258,0.013595947,0.0067674415,0.010048028,-0.0082692485,-0.034129836,-0.027165262,0.0020269332,0.007327295,-0.014982582,-0.028551977,0.0004907374,0.04221094,0.05244942,-0.035632726,-0.008872179,-0.011036913,0.019332703,0.03832479,-0.01423548,-0.00015217578,0.010495984,0.011363403,-0.003223449,-0.0036035501,-0.011290557,0.0015124031,-0.034641117,-0.00891091,-0.022018,-0.027628109,-0.010138999,0.0151744345,-0.003304542,-0.04990776,0.022709318,0.019932512,-0.020933101,-0.06296145,-0.027474135,0.016944725,-0.0014951557,0.04025735,-0.010671508,-0.015254487,-0.04865156,-0.057598833,-0.003137905,-0.0475902,-0.035689622,-0.026572622,-0.018105771,-0.0017414168,-0.02780151,0.00035997294,0.013915567,-0.002754232,-0.014150819,0.022017106,-0.043795988,-0.055716228,0.020305293,-0.023166433,0.060348283,0.026742775,0.033498064,-0.094287105,0.016880628,-0.022286197,0.010544307
TCGA-A2-A0D1-01,-0.04580268,0.010119954,0.0002902674,-0.016385887,-0.014602146,-0.04598836,0.0010800142,0.005765455,-0.053608917,0.016808137,-0.042676337,-0.06406718,0.029318998,0.003619646,0.021551201,-0.034494355,0.011553255,0.046064693,-0.009200751,-0.03887405,0.01966874,-0.036643058,-0.048314337,-0.030600294,0.065645024,-0.048887916,-0.038493093,-0.058639638,0.043918766,-0.032141544,0.008616984,0.006755024,0.014859708,-0.013017064,-0.027938547,-0.0008156309,0.003070516,-0.048648056,0.0182199,-0.026584018,-0.028516844,-0.049496427,0.0015564349,0.0074404343,-0.0046428973,0.034364592,-0.025827501,-0.03214381,-0.03702524,0.008926059,0.008208654,0.02633598,-0.0112426,-0.021619027,0.029930267,-0.017256979,0.0043728966,-0.0283673,0.04982618,0.07977701,0.07150069,-0.024039835,0.06870541,0.009957731,0.04485138,0.037034206,-0.0075599113,-0.003008862,0.028344719,-0.02170116,-0.043768045,0.013527889,-0.019303482,-0.0045015384,-0.002476478,0.014733448,0.073470056,0.07766071,-0.021370502,0.046785172,0.07740128,0.02535494,0.020829283,0.014527823,-0.049807046,-0.0032606684,-0.023538155,-0.028742913,-0.0034305314,-0.019067168,-0.015673893,-0.0027094414,-0.0026066732,0.047035478,0.004914439,0.025710974,-0.02268263,0.008320177,-0.016607694,-0.015818663
TCGA-A2-A0D2-01,-0.026380826,-0.0074665495,-0.01924305,0.015546932,0.0039478308,-0.010668907,0.0034167161,-0.023959246,-0.010827528,0.010341706,-0.03563624,-0.042183552,-0.010010811,-0.0034831045,-0.009300951,-0.014398708,0.009498823,-0.0027770093,-0.02143953,-0.002579934,0.016280439,0.033520386,0.011202911,-0.0030372879,-0.03310205,0.006317366,0.016472748,-0.023818085,0.028601535,0.0018703786,-0.017892115,-0.022012003,0.019104373,0.0013785122,0.009736992,0.022413809,0.0058020703,-0.01888827,0.013351003,-0.0078081205,-0.052941486,-0.06272284,-0.048068646,-0.020152487,-0.0013168139,0.046272386,0.011744482,-0.006923838,-0.024692342,0.019960418,-0.03988812,0.009160204,-0.004822014,0.0036062845,-0.01424165,-0.025717765,0.019273251,-0.005657194,0.04481591,0.025797844,-0.04188541,0.04934228,0.005667844,0.0063020387,0.022099942,0.017774753,-0.006092864,-0.0063604005,0.04491377,0.02853458,0.0022912733,0.0048737805,-0.008322129,-0.038090877,0.04296951,0.049059916,0.05808487,0.077752136,-0.002642298,0.03763054,0.056771465,0.02891842,0.0084298765,0.036888737,-0.07214345,-0.029167404,0.019789895,-0.0035386821,-0.02240346,-0.08187861,0.019669775,-0.11738545,-0.04273144,0.016376397,-0.023521421,-0.039867923,0.014948882,0.087914415,0.0044253985,-0.0025866712
TCGA-A2-A0D3-01,-0.027797567,0.027558427,0.043033548,0.03191706,0.026859142,-0.0045096036,0.019717366,-0.015037245,-0.021555774,0.0041038264,-0.017263578,-0.030143896,0.018622626,0.03634147,-0.017651109,-0.15464987,0.047624454,0.05327895,-0.040150292,-0.0749826,-0.0393507,-0.03738336,-0.032509293,0.08281024,0.011466902,0.037953213,-0.016897708,-0.06450992,-0.017559305,-0.042618923,0.029220032,-0.032827854,-0.028348634,-0.045599904,-0.07446872,-0.050304383,0.026204163,-0.0368596,0.027370404,0.017145138,0.013633496,0.02246754,0.061244957,0.023744725,-0.059591703,0.08834426,-0.038253844,-0.022980878,-0.079669826,0.00433978,0.07245105,-0.012896682,0.02380367,-0.012346068,-0.0055814777,0.027764548,-0.047319785,0.0521397,-0.010793168,-0.05670587,-0.079201505,-0.0091913445,0.04538864,-0.004796156,0.03840521,-0.021075347,0.018678874,0.019565145,0.020104315,-0.0350126,0.021188213,-0.035642397,-0.07707636,-0.0048338026,-0.091248535,-0.003421852,-0.016504096,0.012044526,0.031488035,0.03620723,0.018244432,0.062035963,0.05003341,0.06868404,-0.009258099,0.020218264,0.008106669,0.026419936,-0.04735782,-0.019593671,0.041273464,0.048792265,0.04731631,0.03783822,0.051575016,0.051806748,0.022592258,0.031798087,-0.00377212,0.00059932284
TCGA-A2-A0D4-01,0.007673884,0.021084096,-0.014890823,0.005288585,-0.012807384,0.016763309,-0.02456831,0.045402937,0.04570306,-0.015298634,-0.00024039298,0.01910654,-0.01337911,-0.0036493642,-0.02357443,0.038952306,0.024884325,0.016833246,-0.02199525,0.02174218,-0.070398696,-0.013548352,0.021040326,0.042380445,-0.027991416,-0.025688063,0.04601193,0.021152783,0.008663155,0.022604184,-0.006312285,0.022363704,-0.0151155265,0.031320933,0.027977984,-0.029246677,0.018321125,0.034536958,-0.0032783577,-0.047524832,-0.009568019,0.009691003,0.0041137524,0.073905915,0.025061645,0.05542048,0.0717979,-0.0533317,0.019987531,0.033607345,0.011254022,-0.05780344,-0.009435529,-0.029781945,-0.016974064,-0.021947697,-0.04884448,0.0074733887,-0.05375509,0.018547397,-0.034040123,-0.038301166,0.038206115,0.0008948948,0.021066245,-0.050948694,0.00040247338,-0.009601329,0.022143872,0.010221426,0.010319324,0.021529086,0.010045439,-0.046002768,-0.022327244,-0.0015812754,-0.017278528,0.010290053,0.039559767,0.01561474,0.115564875,0.014683958,0.025771309,0.038208194,-0.009058237,0.0112423375,-0.043928396,-0.05128441,0.0056505455,0.0018096454,0.031013865,-0.0037139966,0.004830609,-0.005753847,0.004671105,0.021912653,-0.07017199,0.020217434,0.022834977,-0.044992957
TCGA-A2-A0EM-01,0.007642056,-0.014580388,0.015787074,0.0381984,0.020686168,0.01285999,-0.014617153,0.019867314,-0.014669134,0.0074605653,-0.006640761,-0.007819147,0.00065541174,0.022084543,0.00978858,-0.0002607489,0.052860092,-0.06463009,0.027504478,0.009574948,-0.031098053,-0.0160462,0.034466736,-0.031988047,-0.07972012,-0.020806538,0.005892717,-0.005201213,-0.0018672645,0.010599231,-0.0051730406,-0.033702023,0.003967349,-0.012124519,0.017002389,0.046964284,-0.0033687595,-0.002083214,0.040838163,0.030537786,-0.031816028,0.06589419,0.047051147,-0.05757138,0.05615391,-0.04805869,-0.0044792574,0.02038524,0.0302247,0.012814488,-0.012632142,0.012593648,-0.014170158,0.002887743,0.016564576,0.019152388,-0.02467408,-0.08393475,0.029274167,0.010434458,0.0171539,0.07646776,-0.0029388145,-0.040720213,-0.033429638,-0.018524662,-0.026816871,-0.025610108,-0.035582237,0.015208014,-0.028779572,0.0011416059,-0.028081391,-0.03149047,-0.029936826,0.044415906,0.02194611,-0.033056818,0.01716316,0.006660792,-0.018857712,-0.012503317,-0.023985954,-0.0134803355,0.019723434,0.010046752,0.026496727,-0.017061824,1.0346994e-06,-0.030577105,-0.008954411,-0.021493727,-0.02264551,-0.06550174,-0.022852756,-0.04252525,0.031545144,0.056917015,-0.036520973,0.019228706
TCGA-A2-A0EN-01,0.00043927692,-0.034169167,-0.016515316,0.0062562674,-0.017748494,-0.025466472,-0.013988291,0.006620148,-0.017729605,0.025260726,0.0012234865,-0.011525951,-0.007562898,-0.007481475,-0.011293851,0.034187537,0.0076810895,-0.05448957,0.025872048,0.013008769,0.023648124,-0.010859603,0.026584256,-0.042786535,-0.045983456,-0.04622244,0.010317988,-0.017800255,-0.025218818,0.018973455,-0.0018012719,0.04413924,-0.005566703,0.012951015,-0.0026716276,-0.029412601,0.025685728,0.007651758,0.020510046,-0.021416899,-0.02222548,0.0033811918,-0.073451795,0.013832314,0.0137697505,-0.018865902,0.023862375,-0.0024005305,0.016839886,-0.033529773,0.028259683,-0.024620866,0.0005599074,0.019185986,-0.02093612,0.04313665,0.011513921,0.059246857,-0.030012237,0.010776519,0.018135697,-0.032524962,-0.032091554,0.005518637,0.04116769,0.012137261,-0.002370743,-0.0024422514,-0.045117,-0.039725985,-0.011805958,-0.031669334,-0.040739458,-0.029421598,0.039688244,0.004707805,0.020007335,0.0041594575,0.036966894,-0.015444234,0.03735277,0.004449851,-0.013486832,-0.009203716,-0.0019766418,0.0009130053,0.0102504,-0.008206004,0.038548782,-0.027613292,0.01162081,-0.0028417695,0.018359497,0.0133413505,0.023300974,0.01443296,0.040728804,0.053889815,-0.032131795,-0.030073158
TCGA-A2-A0EO-01,-0.017191902,0.018046994,-0.029124506,0.013940899,0.01106954,-0.025103083,0.022669045,-0.0122183785,-0.042343058,0.006790873,-0.027859498,0.01676643,0.040135093,0.019914087,-0.020222086,-0.08100762,0.012492298,0.04649812,-0.037702464,-0.019194435,-0.07925299,0.024719225,-0.042005867,0.061303552,0.0047615413,-0.05780515,-0.0015278566,-0.020448025,-0.07060168,-0.031758174,0.024601959,-0.02125745,-0.021569854,-0.04486999,-0.012902544,0.039913394,0.040199704,-0.03256284,0.056674313,0.023660216,-0.056509204,0.018817931,0.066157624,0.008622804,0.0028857253,-0.029231362,-0.048767254,0.0028128852,-0.004630558,0.012250023,0.08155637,0.0014033965,-0.022210704,-0.012742319,0.010105387,0.0016882168,0.02465663,-0.01605745,-0.038841795,0.056016155,-0.014544262,-0.021717243,0.018335361,-0.008617042,0.04000431,0.041876618,-0.0018573562,-0.014188365,0.019923529,-0.031279493,-0.013419004,-0.012860019,-0.03025896,-0.008406526,0.021878164,0.0058233403,0.022904396,0.03480492,-0.004649612,0.027680956,-0.026818484,-0.0031657368,0.021255856,0.012458909,0.015078874,0.0021330193,-0.0053895805,-0.03335391,0.027372487,0.0029729903,0.0034125242,-0.019012876,0.00346595,0.0036792522,-0.021822682,0.019485228,0.030646868,0.02912629,-0.032911576,-0.10078775
TCGA-A2-A0EP-01,0.0074454993,-0.0046501053,0.022962004,-0.0082698185,0.010391856,0.00905578,-0.010832213,-0.011457994,0.003096174,0.005394171,0.010970676,-0.0023489427,-0.01758605,0.03325655,0.008717636,-0.0010100305,-0.0059157154,-0.018656809,0.031982884,0.0103785135,-0.000927364,0.016106121,-0.027489731,-0.010244557,0.04392351,-0.038216483,0.0061670104,-0.033018187,-0.004680501,0.020309094,0.028054664,0.0002527926,-0.02487811,0.007770122,0.0046777055,-0.01414609,-0.0028272755,-0.011166759,0.035979763,-0.057438284,-0.016304642,0.029794296,0.06492426,0.040348537,0.02381139,-0.013225272,0.026418129,0.0030999081,0.03653751,-0.019802041,0.0031093406,-0.025175728,0.010981967,-0.014433239,-0.00048705703,-0.071201615,0.01088191,-0.026969947,-0.013483649,0.08661063,0.016560014,0.0036630025,-0.02816107,-0.08125141,-0.0563695,0.06119967,-0.061886847,-0.06653488,-0.057932395,0.024027437,-0.016388351,0.024972346,0.019456608,-0.021695983,-0.052437767,-0.017673854,0.042426616,0.0004629977,0.022932146,-0.043488402,0.053814884,-0.02049685,-0.025883015,-0.018492088,0.06139078,0.039538242,-0.06468218,-0.013855476,0.09334928,-0.022398343,0.0226737,-0.010226792,0.0021688938,0.037526865,-0.0011756588,0.0016285949,-0.12190593,-0.024068028,-0.017868284,-0.04810518
TCGA-A2-A0EQ-01,-0.03545642,0.01772222,-0.012005132,-0.019141266,0.010347694,-0.007694302,-0.0028505195,-0.000418677,-0.012030103,0.02203716,-0.0146122575,0.014630138,0.030637274,0.0177471,0.0023843087,-0.031922407,0.009993352,-0.022894608,0.02130599,-0.029241335,-0.020385128,0.011730976,-0.00244305,-0.014852524,-0.041649114,0.014230393,-0.029683556,-0.011279469,0.012173498,-0.011737774,0.010951584,0.012855437,-0.04228007,-0.023170497,-0.01782918,-0.023756772,-0.037895344,-0.009222403,0.053654592,-0.020046484,0.0022641192,0.02583509,0.016176097,0.076678164,-0.03788446,0.030818816,0.03221566,-0.04349612,0.026677098,-0.076200254,0.04285516,-0.076725274,0.0031016506,-0.03578365,-0.08820293,-0.02152976,-0.0956331,0.04575374,-0.034696754,-0.08264396,-0.07789236,-0.08585252,0.061201453,0.00036593294,-0.010749192,-0.050190583,0.018976705,-0.011044396,0.0775583,0.017224787,0.01422104,-0.01159041,-0.10172238,0.032484736,-0.09297416,0.058844045,-0.0006731823,0.037981316,0.0048459,0.071850315,-0.01417121,0.064208746,0.050667364,0.064766034,-0.066093475,-0.018759549,-0.026210874,-0.002331038,0.012686836,-0.011096656,0.042528998,0.013709642,0.057832677,-0.05405243,0.009806823,0.016202377,-0.0013725101,0.023500843,0.047443476,-0.0011047445
TCGA-A2-A0ER-01,0.05247749,-0.01694737,0.012372408,0.0125994785,-0.001111716,0.032972876,0.0008811826,-0.03716076,-0.0041284356,0.0027699072,-0.021722034,0.05867801,0.043569744,-0.0015372634,-0.029524507,-0.009299339,0.034854263,0.05836422,0.015150918,-0.007341777,0.03879176,0.06921792,0.017491657,0.036876686,-0.051606048,0.03670997,-0.012480684,0.03591759,0.07148544,-0.0061284904,0.036014337,0.03202096,-0.039909422,0.004150773,0.022816304,-0.03785511,-0.031348586,0.01607899,-0.014210215,-0.030001137,0.051232643,-0.03378633,0.0022687283,0.009177724,-0.011990894,-0.023953566,0.07511181,-0.01238308,0.034288976,-0.06345027,0.023771007,-0.038861133,0.0715027,-0.029535696,-0.024165701,-0.00198439,-0.001341884,0.017004762,0.008435563,-0.07556837,0.016830387,-0.028673027,0.059931666,0.042939756,0.00045351032,-0.010093612,0.0036801314,0.0070801927,0.011987439,0.047181748,-0.0046974085,0.064521104,-0.053395074,0.010831361,0.070065424,0.051704325,0.061084025,0.031317696,0.0034369752,0.010025805,0.004713404,0.040461093,-0.024022963,0.005493574,-0.02939811,-0.028105281,-0.053853497,0.031098269,0.036986772,-0.0033161335,0.008147249,0.070644476,0.052078627,0.029534563,0.042663112,0.031340055,0.013888678,-0.043261256,0.027844975,0.0356321
TCGA-A2-A0ES-01,0.061072536,-0.04615022,-0.00710877,0.013253803,0.002884768,-0.017854862,0.02139404,0.0016567186,-0.038272385,0.004492629,0.001800525,0.059050824,0.021433905,0.024723507,-0.037943453,0.010178182,0.041411612,-0.041356925,0.009480158,0.025263226,-0.0098890755,-0.02491602,0.02412754,-0.037471376,-0.051461995,-0.0037942133,0.024313498,-0.011793441,-0.021772187,0.028774492,-0.011789821,0.029585134,-0.019375045,0.011401807,-0.002445127,0.013645971,-0.004148433,0.01935466,0.028583284,-0.0022715395,-0.000504164,0.01585319,-0.016328923,-0.0019452428,0.028814612,-0.00016637612,0.05256696,-0.0364658,0.03806354,-0.06974756,5.4014847e-05,-0.031542055,-0.005853501,-0.017273474,0.0015704278,-0.03516896,-0.015784657,-0.0072227074,0.028422106,0.018036585,0.015947368,-0.018338803,-9.504752e-05,0.0016339272,0.025802646,-0.041653037,-0.048370175,-0.044137146,0.03092726,0.024761047,-0.022343101,-0.016044928,0.029649016,-0.017801626,0.0017870646,0.010270419,0.029269028,0.055030014,0.00065735076,0.021734918,0.045225844,0.010579113,0.010800252,0.007485575,0.029922912,-0.020600107,-0.066104315,-0.0029093046,-0.014656279,-0.019186746,0.016843224,0.028427027,0.009184412,-0.021120971,0.00026153494,0.021716382,-0.030676113,0.0010729143,-0.0319378,-0.02073355
TCGA-A2-A0ET-01,-0.0031808019,-0.002088904,-0.016918486,-5.686134e-05,-0.020412516,-0.0397385,-0.009956868,-0.039378315,-0.0352481,-0.015657213,0.025080547,-0.029649405,-0.011257812,-0.0044831997,-0.016503517,-0.014770331,0.050769933,-0.037995625,0.0073529123,-0.013302272,0.023571195,-0.019398568,0.064487986,0.003805546,0.037653156,-0.04568488,0.0063125947,0.013675702,0.0124491295,0.019463962,0.011594855,0.01251312,0.013662985,-0.003972724,-0.016806986,-0.021818139,-0.00594054,0.019927954,0.034729473,-0.0005616266,0.038731247,-0.026722006,-0.017863402,-0.007974121,-0.012711605,-0.039929725,-0.008458847,-0.030659191,-0.0141625125,-0.023112677,0.0048262468,0.0321867,-0.011018649,-0.012272776,-0.005437194,0.03477049,0.017543502,-0.0066250144,-0.014550138,-0.0030352268,-0.0061193444,0.015743831,0.00980795,0.0007407237,0.019417964,-0.027050333,0.018322377,0.009030901,-0.036936566,-0.017856034,-0.0050002933,0.01456047,-0.052078396,0.0006536376,0.07020311,-0.010138154,0.05209581,-0.0008672003,-0.00064709195,-0.0063117496,-0.05835485,-0.022709105,-0.0012290203,-0.018217782,0.015989734,-0.0008720262,0.008864073,0.039225724,-0.012999128,0.06052704,-0.0404828,0.054360237,-0.017191116,0.022488099,0.017285949,0.016300388,-0.00029607024,-0.01724331,-0.049943782,-0.015736513
TCGA-A2-A0EU-01,-0.022505429,-0.008469323,-0.030765675,0.009528125,0.0054134997,0.042253677,-0.04307601,-0.014429241,-0.016147818,-0.028483815,-0.006417297,0.042052675,-0.016259631,-0.011361372,-0.029721418,0.06977944,0.0037716152,-0.04104667,0.019639902,0.023607349,-0.04015398,0.033142965,0.0013880236,0.022963712,0.01066963,-0.02244443,0.050052885,0.025491517,0.004078848,0.037394583,0.0207367,-0.015964584,-0.020541599,0.02007423,0.027825268,-0.0125638135,-0.07682136,-0.0056547318,0.011241387,0.018863775,-0.010213942,0.018746478,-0.047484502,0.01580463,-0.0014558947,0.0020383853,-0.008450896,-0.0073652286,0.037746474,0.00051109307,-0.005835022,-0.045770407,0.008224331,0.0013503513,0.013871611,-0.0029488362,0.0089115435,-0.009510201,-0.05514293,-0.011490763,0.008794546,0.0019747838,0.008060201,-0.0012512533,0.014531095,0.043466493,0.00051779207,-0.008024988,-0.04113811,-0.01596457,0.030068843,-0.0014984701,-0.06373803,0.02468858,0.035232205,0.0022149067,-0.007931214,-0.04217363,-0.00073477346,-0.012877657,-0.0012127608,-0.013604468,-0.0023200277,0.0072352705,-0.0461993,0.00851908,0.044598825,-0.002653013,0.033815015,0.014134463,0.02447634,-0.06126897,-0.018441988,-0.024010263,-0.021095224,-0.027542347,0.05643395,0.06895377,0.002041726,-0.04335763
TCGA-A2-A0EV-01,-0.014838965,-0.010423725,-0.013626847,0.017380428,-0.050932623,-0.030827966,-0.024649085,-0.02677237,-0.056712326,0.026098851,-0.054137636,-0.011237509,-0.0070837503,0.0005623137,-0.0037534023,0.0007024994,0.007371841,0.05972384,0.0051091765,-0.018604128,0.014193203,0.036237083,-0.0021199721,0.028028775,0.0029003127,-0.016436303,-0.0048489207,-0.006416058,0.026488941,-0.015750103,0.026572663,4.8050075e-05,0.009715061,-0.013566773,-0.0044745635,0.0037153084,0.014579447,-0.004326446,-0.010387963,-0.022162342,0.013471473,-0.048125435,-0.013317021,0.019748937,-0.018725019,-0.0071217413,0.012457194,-0.049046647,-0.070008576,0.0056231557,-0.018797047,-9.206124e-05,0.0028504245,-0.0032712864,-0.010895917,-0.029211003,-0.012070712,0.005692129,-0.032584466,0.03616663,0.05244683,-0.00873871,0.08452289,0.032319065,-0.0066455454,0.05324316,-0.0041057616,0.0010858895,0.04569767,-0.047576565,-0.003597633,0.054322265,-0.055266064,0.009340552,0.050157566,0.047872834,0.065848395,0.048049737,-0.03813357,0.056733463,0.051774047,0.023469115,0.031567324,0.03226733,-0.08417459,0.042604826,0.009176103,0.02984753,-0.030041242,-0.008784041,0.0037332547,-0.04638118,-0.024998333,0.010218022,-0.010372579,0.018292915,0.046770465,-0.045027398,0.0027920539,0.0050360495
TCGA-A2-A0EW-01,-0.016795717,-0.0003248097,-0.0048544994,-0.018410265,0.024534611,0.01858228,0.021593159,-0.059081323,-0.04357487,-0.00800952,0.052321017,0.008831726,-0.025443174,-0.00019900408,-0.00025044451,-0.00036303606,0.025169658,-0.0151711535,-0.017040895,0.004169798,-0.011366264,-0.03518432,0.020633273,0.00782953,0.049243584,0.0018699765,-0.0060404637,0.008585313,-0.037606135,0.010794979,0.016854564,0.030951904,-0.023434484,-0.010536889,-0.009294223,0.019050876,0.03853657,0.011169324,-0.005443399,0.041936893,-0.013634695,-0.017552003,-0.035415415,-0.040550333,0.0009013582,0.005625559,-0.036284264,0.043179,0.011385083,0.038311277,-0.016926762,0.031822428,-0.015011337,0.038219467,0.011776358,-0.025713606,0.033604007,-0.08077727,0.05441244,0.027806718,-0.014352206,0.08835378,0.0036214404,0.012794575,-0.0020425906,-0.027518928,0.031720906,0.010707263,-0.029959641,0.030610166,-0.04894575,0.016610628,0.019010292,0.0011492642,0.07019094,-0.029603286,-0.037667736,0.041400176,0.006718248,-0.026067037,-0.03912002,-0.032319568,-0.06780194,-0.04542205,0.016474532,-0.022385236,0.041292526,-0.023687022,0.006507179,0.030376403,0.0077194124,0.035512146,-0.02922802,-0.010233856,-0.010608117,-0.029514823,-0.021743048,0.014402834,-0.057085212,-0.016318941
TCGA-A2-A0EX-01,0.048052482,-0.020604936,0.004522852,-0.021082025,-0.03662869,-0.01908718,-0.007469894,-0.03490441,-0.016401712,0.017495142,0.03148178,-0.0025646826,-0.014003677,0.043351818,0.014130641,0.03153763,-0.021187544,-0.005653934,0.027992051,0.025968611,0.01540856,-0.026828058,-0.049301416,0.015222287,0.03681445,-0.021019593,0.020300744,0.021126546,-0.0393548,0.030621707,-0.03710017,0.006318611,-0.019649839,0.040028732,0.043979533,0.026583588,0.0069019273,-0.0016039928,0.023598406,-0.011941376,0.04175911,0.005627721,-0.03417931,0.01287234,0.004057455,0.04563641,0.069570936,-0.020128388,-0.013532873,-0.022497337,0.00342377,-0.030839471,-0.095724516,-0.047670044,-0.030018145,0.012284949,-0.022123886,0.07135953,-0.020926865,0.044808283,0.011118844,-0.07835181,-0.0046921065,-0.045880925,-0.03575693,0.05812046,-0.02129388,-0.052916422,0.02469834,0.0046094656,-0.0202808,0.010631967,0.0009495206,-0.0059826532,-0.09697363,0.040460113,-0.016329918,0.008263463,-0.0024160482,0.029318176,0.07392394,0.0077538714,0.02636608,0.024192987,-0.051223114,0.06774978,0.002286571,-0.023188688,-0.0225274,-0.05606481,0.016742803,-0.0066224253,-4.3479726e-05,-0.057762958,-0.019336307,0.0024479255,-0.01663269,-0.0099011995,0.006015215,-0.0271009
TCGA-A2-A0EY-01,0.039806005,0.0003912961,-0.017038776,0.017665807,-0.019202884,-0.019258944,-0.005217028,0.028491866,0.020307478,0.025740158,-0.025874216,-0.017085291,0.012876011,0.014655582,0.037715532,0.02076558,-0.030198237,-0.0077528553,-0.014021354,0.0024106677,0.04691979,-0.011715617,-0.016404761,0.00061387196,-0.030653656,0.0155884065,-0.0029300924,0.004709907,0.06112695,0.048894268,-0.027111605,0.021294119,0.025953263,0.019796733,0.023117984,0.012430145,-0.05362929,-0.01579909,-0.02114912,0.017320193,-0.004680136,0.0019957079,-0.024349049,0.023258045,0.005984434,0.02254866,0.021808006,0.016859729,-0.024482,0.012680587,-0.047492683,0.004190251,0.03551785,-0.013079217,0.0027421247,0.023799255,-0.0093725175,-0.03215026,0.041431133,0.015560558,-0.018076597,0.055949822,-0.020030491,-0.014069401,0.006790909,-0.0030152462,-0.030492306,-0.031165585,0.079640254,0.030866917,-0.00034774718,0.027530082,0.060015697,0.036087297,-0.02544642,0.014597097,0.011044703,0.0121209975,-0.02796881,-0.033891134,0.0335995,-0.015504936,-0.007085773,0.006204973,0.028347643,0.017017026,-0.043138474,-0.006908481,0.012571151,0.011134558,0.013076413,0.005518335,0.026811987,-0.012646997,0.052128255,0.032177854,-0.021847546,-0.0088681895,0.05526311,0.053434547
TCGA-A2-A0ST-01,-0.05257401,0.0009451696,0.019392937,0.019615753,0.0048780725,0.017205521,-0.011683887,0.022633802,-0.02536314,0.0077494467,-0.009828281,-0.03831366,-0.011594575,-0.00832713,0.010642098,-0.06375387,0.005785849,-0.019862192,-0.039754044,-0.04347909,0.030283753,0.012874316,0.020737395,0.018265072,0.016527098,-0.0806874,-0.043683454,-0.010904857,0.039855894,-0.032290526,0.08389001,-0.0144038405,0.0027796319,-0.043786302,-0.03283351,-0.07111167,-0.015108623,-0.04835911,0.05130875,0.022066923,-0.055293027,-0.04121694,0.11172252,-0.07535578,0.03321877,-0.08458404,-0.09122317,0.012088673,-0.007987008,0.04149235,-0.0012304946,0.05039457,0.055301063,0.048948333,0.050312016,-0.046762135,0.05059038,-0.037166264,0.026909096,0.07928413,0.029141542,0.018020226,-0.02802423,0.020475563,-0.011798213,0.0056099435,0.024338357,0.006334705,-0.018792313,-0.0353369,0.011231171,-0.043534786,0.023574213,0.021962587,0.078459986,-0.088741295,-0.04024676,0.022078935,-0.0025085532,0.009256547,-0.07818492,-0.029117364,-0.019396752,0.0047505945,0.039396882,2.9759482e-05,-0.008124252,-0.054978408,-0.017031563,-0.034660883,-0.026773812,-0.016650744,-0.024448894,0.051904675,-0.004969361,0.013869768,0.017917305,0.06506158,0.0044067213,0.062729865
TCGA-A2-A0SU-01,-0.030473668,-0.007102048,0.018511629,0.04564499,0.0004329607,0.005258306,0.04097039,-0.01577037,0.08885431,-0.008396653,-0.041701287,-0.04916853,0.01904529,0.0161585,0.006873642,-0.053581446,0.047158945,0.05856666,-0.02306983,-0.025078215,-0.036014065,0.021463316,-0.008227807,0.0041284077,0.037109498,-0.002844126,-0.03924231,-0.02657703,0.03129877,-0.024391348,0.002786756,0.02191316,0.025954882,-0.017195936,-0.040130787,-0.010567014,0.004725544,-0.033454757,-0.012481138,-0.059166472,-0.03895335,-0.036155995,0.045947343,0.02075394,0.014523697,-0.015918043,0.013123335,-0.077059716,0.008059999,0.011353435,-0.052300088,-0.012833644,0.03394304,-0.034444667,-0.02508116,-0.007024537,-0.016935166,0.005977636,0.014337611,-0.046902094,-0.059941992,-0.0130074015,0.008639159,-0.002256943,0.023611648,-0.035952527,0.020865766,0.01796126,0.035602726,0.0024673715,0.009978442,-0.0010153642,-0.06627495,0.031774055,-0.004682329,0.0014988815,5.0373492e-05,-0.059079856,-0.0007805587,0.010389599,-0.063848734,0.00518116,-0.023242645,-0.027558768,-0.0106641725,0.004693458,0.043669827,-0.026549272,0.013173391,0.0025196888,-0.013138084,-0.03253957,-0.02812231,0.056176472,-0.013827817,0.010341775,-0.0009033815,0.005997693,0.007692881,0.00410147
TCGA-A2-A0SV-01,-0.059943646,-8.6025975e-05,0.019320088,-0.011162775,0.00974856,0.029854147,-0.011205668,-0.054428283,-0.020235121,-0.0060053244,0.0060199825,-0.00566756,-0.0402592,-0.015119784,0.0052863657,0.018185807,-0.06579493,-0.013923163,-0.010784049,-0.01231424,0.0064860415,0.0017712424,0.016019326,-0.008522919,0.00045491895,-0.03615158,-0.012979469,-0.0031415585,0.021439571,-0.0069624335,-0.017212002,-0.009643892,0.0027751601,-0.0042567444,0.0030675046,0.0072535835,-0.011425972,0.01589774,-0.026746744,0.004386677,0.005303338,-0.000803933,-0.036352973,-0.031330213,0.0031413883,-0.028200582,-0.022800392,-0.013156898,0.008800444,0.00087242573,0.011077205,-0.0075993044,-0.04430895,0.026513444,-0.0014769277,0.031897165,0.026763242,0.041729447,0.06495033,-0.0035339706,-0.019370511,0.011228068,-0.02281946,0.013304766,-0.01873026,-0.0009151455,-0.00091448426,-0.002282395,0.017879106,0.01793802,0.020213243,-0.012829233,-0.05026577,0.022771154,0.06288445,-0.004109183,0.030708516,0.025582373,-0.020979669,0.0061550103,-0.031399395,-0.0133516705,-0.010315887,-0.011942387,-0.022885837,-0.03300311,0.03390861,0.013128924,-0.015152,0.010757097,-8.93868e-05,-0.049429033,-0.023571631,-0.010070439,0.00014865585,-0.019803742,0.083809234,0.02502803,-0.02406873,-0.032180764
TCGA-A2-A0SW-01,0.018764522,0.0067016054,0.024648568,0.02605634,0.013886342,0.015399134,-0.00802577,0.052011486,-0.014548311,0.011444664,-0.0327591,-0.025883596,0.014140379,0.013921081,0.00051547494,-0.018584643,-0.0077516017,-0.029100431,-0.024062334,0.009921736,0.031349488,-0.008892989,-0.010660127,-0.017550772,0.011676511,-0.0038827993,-0.03285519,-0.0012576873,-0.0009217346,-0.01867521,-0.011558721,-0.018123576,0.05446081,-0.008106821,0.013911072,-0.020409115,0.011272826,-0.02109052,-0.026266146,0.0081013255,0.0056318454,0.032867238,0.028330525,-0.016955568,0.031192532,-0.036522828,0.0008347314,-0.02963871,0.044771492,0.0033369386,0.015790446,-0.034908507,0.014069965,-0.0017303554,0.0035060067,0.023249742,-0.007539085,-0.027195519,-0.038591623,-0.0025407951,-0.013126273,0.050811227,0.04492313,0.010119789,0.014631436,-0.03284694,0.0028953662,0.019419089,0.012743162,-0.012568471,0.027269902,0.041091274,0.032344848,-0.0034165927,-0.001953967,-0.002971733,-0.01565665,0.012865218,0.023118474,0.0062761465,0.00265021,-0.017274631,-0.0070784134,-0.0007938128,0.002818904,-0.06648966,0.015187576,-0.024800833,0.034502532,-0.026808213,-0.0101697,0.017674785,-0.013529252,0.017617797,0.014559016,0.021367677,-0.0095180385,0.03879428,-0.0049702395,-0.009872711
TCGA-A2-A0SX-01,0.04374083,0.020387033,0.023996562,0.028666304,0.008862228,0.06061542,-0.025512755,0.067992926,0.007046233,0.010323503,0.018567793,-0.024201017,0.0011149626,-0.0035090055,-0.0033102776,0.016336845,-0.03809408,0.0013493833,0.038148366,0.019926649,0.03803259,-0.017587401,0.015586215,0.012102037,-0.063865684,-0.012833339,-0.0008840929,0.014661185,-0.015329664,-0.0170084,0.011851406,0.013941079,-0.0029580276,0.032368645,0.000332525,-0.022217786,0.053216066,0.008640319,-0.0064107613,-0.036837827,-0.008356691,0.015751295,-0.013783292,0.06719676,-0.032591052,-0.024093688,0.040384516,-0.008515738,0.049817525,-0.00850389,0.01363436,-0.029216005,-0.027055614,-0.028333873,-0.012950053,-0.0050527216,-0.01410594,0.069360636,-0.02445601,0.016712058,-0.027925394,-0.0117706815,0.0072742193,0.026599502,-0.009260056,-0.019714262,-0.034598213,-0.03557263,0.009082314,0.023351341,-0.018603554,0.033751786,0.06771566,-0.008644244,-0.014307583,-0.024992604,0.079604216,0.033770133,0.049463216,0.034120016,0.0035518864,0.040070843,0.02977475,-0.005244548,0.047573447,-0.031349126,-0.040685207,-0.0056094658,0.03924442,-0.006995817,0.04369722,0.02599765,0.029750116,0.03779438,0.035142686,0.072398245,-0.07764551,-0.026024535,0.0024007685,0.034537584
TCGA-A2-A0SY-01,0.0067860577,0.012400777,0.01854921,-0.0073747216,-5.7913363e-05,-0.004796312,-0.019748863,0.007830799,0.0029747626,0.011141075,-0.0027220715,-0.015160217,0.032628987,-0.0029409416,-0.04379314,-0.044465795,0.027659576,-0.004120327,0.026373425,-0.012526758,0.0011070948,0.0029334044,-0.0037991926,0.021003714,0.031988613,0.017760329,-0.011595711,-0.010485131,0.014935083,-0.027034,0.054440208,0.011863463,0.02220833,0.02168605,-0.0020258017,0.0025532637,-0.035005003,0.008300363,0.0013982025,0.03875847,-0.0055506267,0.020431165,0.0034606392,0.019272448,-0.00043227617,-0.0075882054,0.01882322,0.02593129,-0.01145008,-0.0066520404,0.030330446,-0.027962228,-0.0055256337,-0.00921775,-0.030027226,0.025847722,0.0024325363,-0.0031855311,-0.0017026654,-0.012568018,0.058027986,0.023057146,-0.0013689417,-0.0047049094,0.05205825,-0.03582158,-0.014154699,-0.015970314,0.043721717,0.0014871994,-0.034690596,0.018345248,-0.057848528,-0.017173998,-0.08601006,-0.03917925,0.0036691334,0.0004652175,-0.020253608,0.029722277,0.019320745,0.037214078,0.0239589,0.017122196,0.012908884,0.029801097,0.00780733,0.010994332,0.003973821,0.02658528,0.04192351,0.04828018,0.04230969,0.017587494,0.05075871,0.032485325,-0.013846802,-0.005242127,0.008843187,0.06296841
TCGA-A2-A0T0-01,0.01505436,-0.0032090992,-0.047880247,-0.025746498,-0.022103326,-0.026898168,0.0050441376,0.013039069,-0.034116544,-0.033800524,0.02382085,0.05391029,0.0070696343,0.020909108,-0.0504026,0.021572243,-0.012405486,-0.03175279,0.011688121,0.048916828,-0.021902874,0.028320132,-0.029532632,-0.0019525397,-0.014277311,0.0472358,0.04557193,0.018281665,0.0010308712,0.047770493,-0.0060212566,0.037270546,-0.019466272,0.008688564,0.016762473,0.03842637,-0.021134749,0.017300576,-0.04174826,0.034954414,0.06422984,0.074258946,-0.0322648,0.046633717,-0.024391076,-0.004524157,0.01626008,-0.022021752,0.046782985,-0.02665938,-0.010405519,-0.043748315,-0.016521014,-0.038074903,-0.023982465,0.00884817,-0.022194892,0.043247238,-0.010913184,-0.017146446,-0.023946978,-0.03682508,0.025489885,0.00016242918,-0.0046680737,0.00038500875,0.017015073,-0.0002832394,0.056455333,-0.031660598,0.010774758,-0.02254204,-0.023518052,-0.02624335,0.044965293,0.025889467,0.08571406,0.04537891,-0.023167484,0.028416313,0.015402762,0.020740462,0.055517092,0.03300582,-0.008556742,-0.021554027,-0.074370295,-0.024517514,-0.029265368,0.034588665,0.011989775,-0.062870756,0.036450874,-0.039343975,0.03185786,-0.01692817,0.037625186,-0.0065223686,-0.015319499,0.014773377
TCGA-A2-A0T1-01,0.05639272,-0.009092553,-0.020789202,0.010012847,0.0154669825,-0.06278957,-0.007686686,0.011238236,-0.005582968,-0.0044363113,-0.038808107,0.04109557,0.033029474,0.026373398,0.056123063,-0.007652797,0.025402885,0.00024135131,-0.049588732,-0.020175364,0.035703413,0.0026624314,0.0072273053,-0.009373425,-0.04408396,0.08502545,-0.0019573863,-0.03770223,0.05090194,0.0075319004,-0.006973333,0.018383047,0.025751116,0.008533272,0.011984646,0.016505934,-0.029234199,-0.02583393,0.013094513,0.0028525256,-0.028562874,-0.0028165095,-0.004487683,-0.05473015,0.02342254,0.024487045,0.020798558,0.0036964165,-0.036536958,0.022015885,-0.012697574,-0.005968167,-0.029800538,-0.016808126,0.01754057,-0.016363293,0.020203557,-0.032425117,0.04717312,-0.008972116,0.077760205,0.05221605,-0.026940543,-0.07734758,-0.06748623,0.045709588,-0.012267543,-0.045102656,0.021342784,0.031983912,-0.03386575,-0.04296772,0.04371904,0.0058658756,-0.048512034,-0.016494282,-0.023460472,0.06689011,-0.030546336,-0.03472621,0.053855486,-0.015006362,0.025495315,5.549984e-05,0.061030865,-0.040337987,-0.046235733,-0.067919835,0.0481313,-0.03160925,0.03593272,-0.011951021,0.021156058,-0.0036591156,-0.0046691615,0.021190636,-0.0023859078,0.016228171,-0.04093535,0.005957228
TCGA-A2-A0T2-01,0.022257008,-0.0025338465,-0.0033136113,-0.0051060426,-0.004675498,0.029740063,-0.017559677,-0.00076307624,0.02098669,-0.012840611,-0.028597573,0.029914938,-0.0049508633,0.02784836,-0.022762211,0.021227911,0.015636366,0.02452272,0.05092911,0.031467937,-0.007999686,0.035996687,0.032131147,-0.026925068,0.032515958,-0.03898192,0.025601264,-0.007199591,0.033685092,0.035302017,0.04847704,0.03302904,0.012046989,0.028394528,0.01909047,-0.008602937,-0.052112274,0.0128316805,-0.017851813,0.028409768,-0.04871241,0.03258931,0.008926643,0.06000695,0.009231505,-0.03360184,0.05465775,0.008533808,0.0340912,-0.035237353,-0.070138454,-0.04228171,0.029119749,-0.010692809,-0.03550813,0.009297297,-0.028564336,-0.058534548,0.026502367,0.0032339194,-0.03284214,0.015854318,0.0067809885,0.06336064,0.027630828,-0.0011865653,-0.042420007,-0.051890936,0.049918205,-0.015468374,-0.03770802,0.011482928,-0.09796894,-0.022393273,-0.039524037,0.039689228,-0.0071488833,0.037587877,0.0071213357,-0.0021450925,0.00062715355,0.007095021,-0.008796791,-0.015135514,0.011117058,-0.012951149,-0.011193931,-0.062416546,0.09093704,0.03008619,0.0035647126,-0.027295448,-0.007071643,-0.033200566,-0.0032712058,0.05133319,-0.051723115,-0.06575405,0.04284714,-0.0035488612
TCGA-A2-A0T3-01,-6.7188405e-05,-0.0013248059,0.036060806,-0.0072327815,0.020054124,0.031898774,0.029101744,0.04215364,-0.020006679,0.003958317,0.024707846,0.028600179,0.025399309,-0.01030637,0.049380947,0.009004451,0.037104297,-0.010787536,0.022889908,-0.024317905,-0.018605419,0.0032182904,0.0024787672,-0.04522284,-0.030550444,0.0023285672,-0.024479901,0.018726397,-0.0027450724,-0.049617417,0.0311823,0.017625783,0.040742304,-0.013465708,-0.06526028,-0.004080214,-0.040238492,-0.0069231503,0.040536303,0.0002207132,-0.053666346,-0.01140281,-0.00059004594,-0.032900684,0.0013689505,-0.045853302,-0.023577627,0.03258817,0.022309085,0.0014647525,0.022251833,0.03801304,0.006860585,0.004554079,0.013145404,0.022775743,0.06752527,-0.06123127,-0.0035789004,0.004911648,-0.026878174,0.05139611,-0.0047050007,-0.035879772,-0.0091687925,-0.08192702,0.015929494,0.0130628785,-0.05594281,-0.03882114,-0.02911759,0.0214129,0.03703284,-0.021792097,0.04274568,-0.036982708,0.037232365,0.020506501,-0.03498228,-0.024712652,-0.044590153,-0.0064881076,-0.036905758,-0.035877265,0.012492331,0.016810207,-0.009473725,-0.024024535,0.040235024,-0.011275063,0.016330011,-0.0047009173,-0.03558878,0.02071676,0.0063162497,0.0016304236,-0.037894387,0.045194604,0.0486748,0.023308786
TCGA-A2-A0T4-01,0.02905389,0.0076035187,0.008939927,0.0013634274,0.00039096735,-0.050362557,0.029414054,0.037318707,-0.036911067,0.040266924,-0.0323919,0.0032731462,0.008180072,0.0549555,0.04896291,-0.01981002,0.033112876,-0.009646539,0.0076468494,0.008790077,0.0013247808,0.013222112,-0.03147091,-0.0049500167,0.016344786,-0.006158281,-0.010185497,-0.014361533,-0.01346794,0.0031227684,0.022125773,0.013772779,0.0031716903,-0.034594778,0.0019085845,-0.0058786357,-0.009142008,-0.011118268,0.039091326,-0.004889515,0.022128584,0.055714436,0.04522084,0.021428771,0.009567277,0.059148893,-0.008860381,0.027970098,0.05792532,-0.0023582065,0.07407655,-0.05310654,0.03337749,-0.044612806,-0.025308035,-0.031475253,-0.0024613035,-0.030729586,0.01663147,-0.028625414,0.031253137,-0.044403825,0.013524169,0.020861877,0.029773539,0.045108605,-0.033468712,-0.022400104,0.028876252,0.0102801295,-0.0055886772,-0.026152309,0.035844885,0.011550427,-0.109393165,-0.03898898,0.022259416,-0.0072550857,0.013696252,0.0154129565,-0.0022420827,0.010756625,0.023955213,0.0369564,0.01674444,0.07382083,-0.024452243,-0.018440865,-0.040324766,-0.04603067,-0.013382694,0.03068659,0.021150246,0.027907599,0.0016984893,0.020869903,-0.073495045,-0.02993569,0.024033312,0.020142702
TCGA-A2-A0T5-01,0.002979125,-0.0016230894,-0.042928413,-0.041518573,0.010752833,-0.032856815,-0.008844845,-0.0031849048,-0.03923655,0.013187341,0.0041041207,0.026637554,0.027779762,-0.0034613276,-0.07893366,-0.011936583,-0.031861067,-0.03639025,0.037572566,0.0073745614,0.018816484,-0.0071871825,-0.036920525,0.07027023,0.0114154015,-0.090483055,0.021381054,0.031700414,-0.072904244,-0.0042433627,0.045929484,-0.03828233,-0.05506161,0.014737638,0.017686583,0.015128823,0.01564363,0.04077582,0.056940176,0.040550426,0.040323816,0.07139839,0.037124433,0.059669834,-0.054336935,0.029891094,-0.023739055,0.0076107755,0.010363303,0.007424,0.01960517,0.006905413,9.818794e-05,-0.03106082,-0.009812759,-0.04706756,0.0007203985,-0.008238602,-0.04540697,0.031357072,0.0061026937,-0.01656326,-0.029443294,0.015193103,-0.0034617968,0.011010444,0.00214989,-0.007395278,-0.02123729,-0.009370698,0.00058412063,-0.022931889,-0.050099727,0.0017472804,-0.02639618,-0.02052021,0.01106295,-0.041207217,0.040442962,-0.004252496,0.052788552,0.01580131,0.011480787,0.005300423,0.024782207,0.020590736,0.04313573,0.017971553,0.05434662,-0.00536329,-0.018685509,-0.0031998656,-0.0019087447,-0.015210445,-0.012593225,0.017652955,-0.027524162,-0.051627822,-0.0021036938,0.004850573
TCGA-A2-A0T6-01,0.029868394,0.0029884223,0.0062949955,0.008771673,-0.008658761,0.060930964,-0.009840487,-0.015904501,-0.034582097,-0.04309022,0.025680564,0.016686888,0.015781948,0.020117734,0.0040288456,0.007100662,-0.110003814,-0.027024984,-0.017054653,-0.0050205053,0.004235477,0.018562816,-0.02609444,-0.020596392,0.0026109095,-0.027298536,0.0206085,0.0061897244,-0.0112207215,0.027017679,0.0029445956,0.0055849245,0.0005495623,-0.0114485845,0.042157874,0.054302983,-0.008765518,-0.015583154,-0.08126726,0.018378973,-0.005389599,-0.0005415727,0.0054267533,0.012488153,0.014343898,-0.00014187701,0.0074863513,-0.012341141,0.008607324,0.008570442,0.008903121,-0.02160884,-0.04159312,0.025674324,0.021378973,-0.01965841,-0.023642233,0.0034215911,0.016936865,0.057158746,0.023845771,-0.01045179,0.028995717,-0.0049315393,-0.025713094,0.044648316,-0.008322174,-0.004573738,0.015444537,0.026645333,-0.012353049,-0.026885899,0.10651768,-0.023397353,-0.016398424,0.046142377,0.06676747,0.07975911,-0.00039631687,0.026096186,-0.037575673,0.020599566,0.03767734,0.032848343,-0.011790503,0.023033036,-0.03921145,0.001093016,-0.0077699767,-0.016094793,0.006352476,-0.078753866,0.024079327,-0.055862594,-0.0151328165,0.024904568,0.0142629035,0.035864346,0.004751146,0.03762797
